tree
version=v2
num_class=1
num_tree_per_iteration=1
label_index=0
max_feature_idx=99
objective=regression
feature_names=Column_0 Column_1 Column_2 Column_3 Column_4 Column_5 Column_6 Column_7 Column_8 Column_9 Column_10 Column_11 Column_12 Column_13 Column_14 Column_15 Column_16 Column_17 Column_18 Column_19 Column_20 Column_21 Column_22 Column_23 Column_24 Column_25 Column_26 Column_27 Column_28 Column_29 Column_30 Column_31 Column_32 Column_33 Column_34 Column_35 Column_36 Column_37 Column_38 Column_39 Column_40 Column_41 Column_42 Column_43 Column_44 Column_45 Column_46 Column_47 Column_48 Column_49 Column_50 Column_51 Column_52 Column_53 Column_54 Column_55 Column_56 Column_57 Column_58 Column_59 Column_60 Column_61 Column_62 Column_63 Column_64 Column_65 Column_66 Column_67 Column_68 Column_69 Column_70 Column_71 Column_72 Column_73 Column_74 Column_75 Column_76 Column_77 Column_78 Column_79 Column_80 Column_81 Column_82 Column_83 Column_84 Column_85 Column_86 Column_87 Column_88 Column_89 Column_90 Column_91 Column_92 Column_93 Column_94 Column_95 Column_96 Column_97 Column_98 Column_99
feature_infos=[-4.3737883599999998:4.2555751800000001] [-5.4106349900000001:4.2623405500000002] [-4.7979574200000004:4.60186195] [-5.3124513599999998:5.8273649199999999] [-3.2831897699999999:3.47392988] [-4.6312284500000001:4.5474400499999996] [-4.1484427500000001:6.2087025599999999] [-4.9103450799999999:4.1556014999999995] [-4.7474994700000002:5.4323630300000003] [-4.0005378699999996:4.4812011700000003] [-6.4553098699999998:5.4810676599999999] [-5.1038832699999999:4.2489299799999998] [-5.6021237399999997:3.7539827799999999] [-4.00418758:3.9566798200000002] [-3.7619702799999999:2.9373416899999998] [-3.3556923900000002:3.5143497000000004] [-4.8756389599999999:6.3211522100000002] [-5.46155787:4.8266115200000002] [-5.3183364900000001:4.9152297999999996] [-5.5330810499999998:4.8826603899999999] [-7.1277494399999997:5.10546875] [-4.0713152900000003:4.8122649199999996] [-4.2414646100000004:5.2150774000000002] [-6.0145320900000003:4.2585334799999996] [-5.4519858399999999:5.4526577000000005] [-5.8441996600000001:5.0052790600000003] [-5.6282811199999996:4.1818347000000005] [-4.1736526500000002:4.5726895299999999] [-4.9015212100000003:4.8783679000000006] [-5.0227737399999999:3.5402736699999999] [-3.1961360000000001:3.6956224400000002] [-7.4134883900000004:7.7904896700000004] [-4.5117650000000005:5.1524224299999997] [-5.2495942099999997:7.4731745700000003] [-3.7806851899999998:3.6844677899999998] [-7.3107442899999997:4.8512964199999997] [-4.9925689699999998:4.7023782699999996] [-3.9804463399999999:3.4388413400000002] [-4.9599132499999996:5.6583199500000001] [-4.22818089:4.4424738899999996] [-5.32483912:5.0899496099999997] [-4.8417539600000001:4.1308712999999999] [-6.1011795999999991:4.0278468099999998] [-5.6961784399999997:7.4013781500000002] [-5.7311301200000004:7.3331580199999999] [-3.3633875799999999:4.0675187099999999] [-4.29778576:4.7817149199999998] [-5.0386166599999997:5.0663809799999999] [-6.9316053399999999:5.4418988199999996] [-5.0686054199999999:5.5178213100000004] [-3.7351009799999999:4.3203864100000002] [-3.8378009799999999:4.2678213100000004] [-5.1876192100000003:5.4487762499999999] [-6.4624619499999998:8.8382120099999995] [-4.9614968299999997:4.35018349] [-7.9874777799999999:4.3895864500000004] [-5.6362338100000002:4.9062523799999997] [-4.4550123199999998:5.08653069] [-3.4960482100000001:3.1883559199999998] [-4.9489550600000003:4.9819107100000002] [-5.0749898:7.1460046799999999] [-4.9167466199999996:4.4787550000000005] [-4.9693708399999998:4.2430567699999999] [-4.5545263299999998:3.85014105] [-5.1800246200000002:5.4481649399999998] [-4.9088106199999997:3.7917609200000002] [-5.5417642599999999:5.8507251699999996] [-3.78464651:3.3992075900000001] [-4.7474393800000003:4.7416253099999999] [-5.3043160399999998:5.5207457499999997] [-6.10899401:7.9277377099999997] [-3.74119782:4.5647459000000001] [-3.4741823699999999:3.3536489] [-4.9951744099999997:4.6088404699999996] [-4.2041783300000004:4.8673729899999998] [-3.9360401600000001:3.6548771900000001] [-5.5953588500000002:5.4414858800000001] [-7.0650558500000002:7.87950325] [-4.0467543600000004:4.2706613500000001] [-4.2901630400000004:4.5742802600000001] [-5.6549096099999998:4.2386665299999997] [-6.4463472399999997:8.1983766599999992] [-4.9989547700000001:4.0389781000000005] [-8.7354269000000002:6.4403224000000003] [-3.9872653499999999:4.3026599900000004] [-7.31352139:4.3670640000000001] [-4.0639095300000001:4.8248071699999997] [-7.5639815300000004:6.8345117599999998] [-6.2167181999999999:6.2577672] [-6.5334567999999997:5.3713502899999996] [-7.5713033699999999:7.47039366] [-3.6598060100000001:4.77458954] [-3.4235477400000001:4.1816282300000003] [-6.41424942:5.0011138900000001] [-5.05516291:4.8836231200000002] [-7.8705644599999998:4.9129710199999996] [-4.6354737300000002:4.1498856499999999] [-5.4405865699999998:4.6637048700000001] [-4.6392946200000003:4.1951389299999997] [-3.95791578:6.3163313900000002]
tree_sizes=2107 2155 2174 2175 2178 2180 2164 2190 2184 2186 2186 2183 2197 2167 2191 2182 2193 2195 2181 2188 2192 2187 2197 2183 2184 2185 2181 2194 2198 2201 2184 2198 2181 2188 2185 2193 2182 2203 2201 2194 2205 2203 2200 2186 2202 2203 2180 2201 2200 2207 2199 2179 2189 2209 2204 2178 2197 2207 2197 2201 2189 2185 2207 2196 2198 2179 2174 2193 2195 2188 2205 2203 2188 2202 2191 2185 2188 2184 2190 2196 2193 2212 2198 2195 2190 2196 2178 2186 2194 2201 2179 2194 2195 2199 2203 2207 2185 2191 2197 2179 2204 2186 2215 2201 2203 2187 2199 2199 2202 2187 2193 2186 2193 2175 2185 2204 2198 2207 2182 2204 2176 2170 2188 2194 2185 2176 2195 2175 2189 2186 2211 2188 2182 2202 2188 2147 2203 2196 2197 2189 2185 2200 2186 2175 2194 2191 2183 2189 2187 2183 2180 2193 2180 2200 2203 2191 2184 2174 2204 2198 2198 2178 2190 2198 2162 2170 2186 2193 2191 2192 2182 2182 2167 2182 2184 2204 2188 2186 2150 2191 2163 2145 2157 2166 2208 2212 2160 2189 2161 2146 2163 2172 2174 2186 2153 2202 2174 2171 2190 2171 2196 2178 2132 2172 2131 2169 2155 2157 2191 2174 2204 2192 2149 2189 2187 2164 2142 2183 2174 2170 2134 2156 2159 2173 2147 2166 2183 2187 2177 2174 2190 2175 2192 2172 2166 2176 2180 2170 2161 2198 2181 2164 2169 2181 2151 2200 2142 2185 2198 2133 2201 2171 2156 2156 2170 2192 2153 2176 2180 2184 2173 2174 2161 2180 2134 2180 2157 2185 2189 2174 2167 2167 2175 2112 2147 2168 2186 2175 2192 2194 2188 2191 2173 2138 2195 2165 2140 2172 2177 2192 2169 2189 2197 2166 2223 2135 2161 2154 2134 2143 2168 2185 2141 2177 2179 2207 2168 2167 2172 2148 2188 2175 2181 2161 2194 2168 2195 2125 2161 2156 2164 2142 2182 2181 2167 2173 2173 2205 2147 2196 2162 2133 2153 2154 2194 2161 2154 2175 2157 2138 2182 2165 2135 2182 2149 2137 2190 2153 2157 2161 2181 2141 2143 2163 2198 2167 2159 2166 2157 2201 2154 2173 2179 2176 2148 2165 2163 2160 2170 2182 2180 2169 2184 2158 2204 2164 2150 2163 2171 2157 2203 2167 2144 2162 2158 2182 2180 2171 2162 2161 2162 2188 2178 2141 2174 2189 2166 2154 2149 2170 2189 2168 2200 2189 2147 2159 2181 2155 2161 2149 2135 2176 2214 2187 2150 2181 2190 2182 2126 2195 2191 2194 2164 2184 2184 2165 2153 2177 2161 2179 2141 2184 2180 2189 2169 2179 2149 2188 2193 2180 2199 2153 2151 2142 2179 2160 2179 2149 2149 2184 2172 2182 2160 2176 2158 2137 2208 2158 2184 2161 2147 2209 2170 2144 2176 2204 2151 2156 2174 2154 2176 2160 2180 2146 2137 2167 2180 2158 2182 2166 2141 2179 2166 2206 2160 2173 2151 2151 2161 2174 2141 2166 2152 2162 2131 2150 2187 2165 2170 2160 2175 2195 2163 2185 2167 2182 2162 2139 2184 2193 2169 2170 2185 2161 2155 2169 2146 2182 2155 2167 2175 2156 2139 2187 2141 2178 2179 2166 2204 2163 2158 2198 2190 2165 2160 2153 2186 2175 2158 2156 2165 2158 2186 2185 2170 2152 2170 2184 2153 2189 2184 2168 2150 2156 2174 2186 2172 2155 2158 2160 2148 2173 2188 2178 2138 2192 2152 2145 2201 2180 2157 2189 2189 2182 2211 2182 2206 2166 2175 2168 2183 2165 2163 2162 2132 2191 2150 2133 2201 2177 2150 2140 2159 2178 2172 2158 2139 2167 2161 2154 2159 2173 2163 2168 2186 2138 2179 2194 2158 2161 2155 2143 2161 2149 2166 2190 2168 2184 2184 2174 2193 2169 2196 2182 2177 2166 2173 2190 2171 2139 2211 2179 2157 2127 2147 2154 2166 2185 2167 2165 2158 2148 2187 2164 2162 2190 2139 2160 2184 2178 2160 2191 2169 2195 2179 2138 2154 2190 2143 2146 2164 2170 2152 2148 2180 2174 2190 2149 2197 2174 2188 2185 2161 2161 2187 2186 2190 2167 2169 2164 2159 2150 2156 2146 2145 2176 2209 2146 2150 2174 2194 2138 2183 2165 2158 2127 2174 2164 2146 2170 2172 2162 2170 2158 2118 2178 2176 2194 2184 2194 2154 2176 2201 2192 2208 2174 2162 2168 2168 2168 2175 2167 2181 2147 2157 2174 2180 2184 2180 2157 2138 2181 2205 2174 2169 2200 2185 2156 2142 2179 2162 2188 2133 2158 2167 2186 2160 2193 2144 2153 2151 2203 2135 2174 2172 2185 2149 2160 2174 2170 2198 2175 2187 2193 2159 2176 2146 2156 2192 2188 2158 2155 2196 2161 2182 2170 2158 2179 2180 2185 2152 2145 2156 2176 2167 2152 2167 2192 2184 2174 2149 2174 2201 2196 2176 2154 2168 2174 2180 2194 2155 2153 2149 2160 2176 2188 2167 2189 2172 2202 2166 2169 2196 2172 2147 2189 2181 2148 2150 2169 2158 2160 2166 2194 2132 2149 2171 2155 2145 2185 2149 2176 2190 2175 2148 2194 2193 2190 2169 2149 2154 2150 2154 2168 2137 2218 2180 2179 2165 2153 2160 2165 2135 2213 2188 2167 2139 2164 2151 2141 2178 2173 2189 2172 2154 2135 2162 2172 2167 2174 2186 2145 2165 2163 2170 2173 2192 2153 2153 2166 2170 2178 2178 2176 2192 2139 2149 2155 2168 2163 2182 2167 2146 2172 2149 2176 2160 2145 2204 2182 2177 2174 2192 2193 2200 2189 2191 2173 2147 2157 2165 2163 2167 2160 2167 2175 2193 2161 2154 2174 2178 2183 2170 2190 2145 2168 2177 2173 2171 2192 2201 2176 2177 2177 2187 2184 2171 2164 2160 2178 2184 2160 2159 2177 2169 2150 2173 2163 2181 2151 2189 2178 2181 2176 2147 2175 2149 2163 2143 2178 2201 2158 2182 2195 2185 2169 2156 2145 2176 2197 2154 2160 2190 2145 2158 2157 2157 2161 2165 2182 2180 2150 2185 2145 2167 2182 2167 2171 2181 2139 2192 2164 2201 2193 2164 2179 2153 2176 2181 2153

Tree=0
num_leaves=25
num_cat=0
split_feature=84 41 64 64 55 84 33 33 82 26 29 74 55 50 82 86 10 92 30 55 82 10 84 59
split_gain=155.935 248.709 87.7692 68.8138 55.2976 42.9135 32.4917 29.751 28.0168 30.6747 23.1124 19.0794 18.4757 19.6706 17.1558 17.2933 16.8285 16.3873 15.8351 16.158 13.6536 12.892 11.1682 14.6682
threshold=0.015969345000000006 0.011185180000000001 0.006835990000000001 -0.16202567499999998 1.0000000180025095e-35 -0.013182829999999998 -0.086950334999999976 -0.00081540999999999992 -0.0013873499999999999 0.094556095000000021 -0.072159544999999992 0.080281175000000024 -0.0081255999999999984 0.014062935 -0.0020962349999999997 -0.075773594999999985 -0.37059463499999995 0.016859195000000004 0.44197093000000004 0.071318990000000013 -0.013952059999999999 0.012270125000000002 -0.018721434999999998 0.22785398500000001
decision_type=2 2 2 2 2 2 2 2 2 2 2 2 2 2 2 2 2 2 2 2 2 2 2 2
left_child=1 2 3 -1 5 10 -3 -4 -8 11 -5 12 22 -14 -9 -16 -2 -18 19 -15 -12 -6 23 -10
right_child=16 6 7 4 21 -7 8 14 9 -11 20 -13 13 18 15 -17 17 -19 -20 -21 -22 -23 -24 -25
leaf_value=0.22816242708047424 0.22203548319165262 0.22786554222720826 0.22970768179505446 0.23057341999064251 0.23174499470475654 0.24043675801846978 0.22845345587870045 0.23357174400179417 0.24301650733748409 0.22890386126524859 0.24474066939757189 0.22787165671298917 0.2297972234939033 0.23822271936331857 0.22584133095228642 0.24309260348217035 0.22582195407050706 0.22948008507826717 0.25552015781829274 0.23298999310726523 0.25356724939782627 0.24045558132466446 0.23253590111499983 0.22776992585038841
leaf_count=758 1774 9523 2401 135 775 1558 6538 1580 1184 5076 550 1392 3006 1973 164 1272 7962 4974 89 5848 2154 940 548 182
internal_value=0 0.027786 0.150349 0.225399 0.260644 0.320048 -0.0148038 0.0551688 0.00360015 0.0227675 0.393233 0.0465861 0.0586505 0.0427604 0.121292 0.200403 -0.0899995 -0.077474 0.0689292 0.0641563 0.413393 0.108341 0.149276 0.197658
internal_count=62356 47646 12287 6870 6112 4397 35359 5417 25836 19298 2839 14222 12830 10916 3016 1436 14710 12936 7910 7821 2704 1715 1914 1366
shrinkage=1


Tree=1
num_leaves=25
num_cat=0
split_feature=55 55 64 10 41 14 50 78 14 69 95 33 14 78 95 63 14 3 13 63 55 10 41 8
split_gain=134.459 126.927 107.874 55.5402 56.2118 41.5746 39.7439 34.284 21.5957 21.8545 19.5569 17.5888 14.8491 13.38 12.9059 12.6853 12.5781 12.422 11.7311 11.2619 11.1892 11.213 11.1894 11.0901
threshold=0.01161122 -0.15629497999999997 0.006835990000000001 -0.040833604999999995 -0.0050387099999999992 -0.012836619999999998 -0.005181284999999999 -0.010584194999999998 1.0000000180025095e-35 0.18578847500000004 0.039533270000000002 0.022419460000000006 -0.60248032499999993 -0.013205109999999997 -0.025179564999999998 -0.022361939999999997 0.040017795000000002 0.14508874000000002 -0.015841469999999996 -0.049420799999999994 -0.03425393999999999 -0.10803112499999999 0.0030883250000000007 0.66777083500000012
decision_type=2 2 2 2 2 2 2 2 2 2 2 2 2 2 2 2 2 2 2 2 2 2 2 2
left_child=1 -1 3 20 7 11 -2 17 9 12 -10 -4 23 16 -14 -16 -6 -5 -7 -13 21 -3 -23 -8
right_child=6 2 5 4 13 18 8 -9 10 -11 -12 19 14 -15 15 -17 -18 -19 -20 -21 -22 22 -24 -25
leaf_value=-0.0044581094206374476 -0.0044302044951492125 -0.00026897065729999833 0.0015742704911897007 0.021170748410523736 0.012286109796194933 0.00080168327111439838 0.028337819501757622 0.010680934848690801 -0.0036760746419279679 -0.0050301739537658603 -0.00039082422119105252 0.0031493258613702509 -0.00072313480404752111 0.0033531317909033863 0.0017317811755410148 0.0073643638670490928 0.0039050263570606044 -0.0018475613724745689 -0.0044239020400662207 0.01109103879667685 -0.0025025013515603289 0.01290693889349564 -0.00088179933361744775 1.4354703439907596e-05
leaf_count=4693 10703 652 2656 1497 1189 1677 93 2321 8035 1235 10385 744 3025 2112 3248 1444 718 61 2987 1116 1004 497 209 55
internal_value=0 0.0584403 0.094073 0.164536 0.204771 0.0153207 -0.0368977 0.290644 -0.0167882 0.0230669 -0.0364777 0.0837111 0.0424862 0.12189 0.0364688 0.0693051 0.182611 0.40539 -0.0508995 0.158287 0.0299964 0.0891765 0.1765 0.356244
internal_count=62356 24133 19440 10260 7898 9180 38223 3879 27520 9100 18420 4516 7865 4019 7717 4692 1907 1558 4664 1860 2362 1358 706 148
shrinkage=0.05


Tree=2
num_leaves=25
num_cat=0
split_feature=84 41 16 50 16 29 12 84 84 84 41 31 91 6 23 6 41 84 31 84 16 13 91 44
split_gain=136.259 209.931 71.0328 58.3767 30.4341 28.1889 23.9644 22.8796 20.4608 17.9123 25.6776 16.5569 14.742 13.0236 12.3944 12.2728 13.1112 16.1422 11.9685 17.3175 11.24 11.1594 10.8527 9.91949
threshold=0.015969345000000006 0.019198600000000003 -0.0011098399999999997 0.0045220400000000006 -0.16044925999999995 -0.036104059999999993 -0.9187036449999999 -0.025852254999999994 -0.013182829999999998 -0.021737389999999995 0.069650145000000011 0.14141520500000002 -0.0018988099999999997 -0.088901804999999987 -0.064708824999999984 -0.48479769999999994 -0.020516094999999995 0.18739547000000004 0.22813780500000003 -0.0078390549999999993 -0.036734784999999992 0.0010658700000000002 -0.015640419999999999 -0.018158944999999996
decision_type=2 2 2 2 2 2 2 2 2 2 2 2 2 2 2 2 2 2 2 2 2 2 2 2
left_child=1 2 4 12 -1 -5 -3 11 22 10 20 14 -4 -12 -6 -2 17 -17 19 23 -8 -9 -7 -14
right_child=15 6 3 5 7 8 9 21 -10 -11 13 -13 18 -15 -16 16 -18 -19 -20 -21 -22 -23 -24 -25
leaf_value=-0.0039468332127699157 -0.0089749195821685751 -0.0039786169232388863 0.0022782059758011206 0.0062128064775720457 0.0025541844586903614 0.013301200701889469 0.0016282185379268813 0.0048285975936289798 0.010561663769051861 -0.0034175720286062218 -0.0038857952617759751 -0.0079551838119608052 0.019391924863481361 1.0169145365259877e-05 0.01132442793403126 0.00011387918252879324 -0.0051295553557342321 -0.0052898244973996061 -0.007348821165962755 0.004350700884234655 0.007089511079384346 -0.0013744990706347233 0.022133055787787223 0.0083144364211359748
leaf_count=1314 1236 5026 1752 767 527 461 2155 1383 836 3848 2418 149 494 19004 1710 3565 7652 2257 107 738 1674 1524 1417 342
internal_value=0 0.0259739 0.131426 0.20228 0.0572804 0.293532 -0.0158085 0.0910966 0.34137 -0.00479519 0.00489015 0.163667 0.109753 -0.00859173 0.185166 -0.0841299 -0.0753815 -0.0396192 0.176652 0.198653 0.0803168 0.0315323 0.399301 0.297205
internal_count=62356 47646 13521 6914 6607 3481 34125 5293 2714 29099 25251 2386 3433 21422 2237 14710 13474 5822 1681 1574 3829 2907 1878 836
shrinkage=0.05


Tree=3
num_leaves=25
num_cat=0
split_feature=18 21 33 29 4 33 64 16 98 33 69 34 39 48 58 18 21 39 64 98 33 66 13 16
split_gain=102.728 82.3965 86.1796 62.1296 32.0475 32.1475 30.4621 28.5077 21.8048 20.1366 18.4031 15.3844 14.1883 13.6064 13.3693 13.4228 13.0044 12.602 12.0066 11.9849 11.7692 11.0617 10.7707 10.6131
threshold=-0.0037761699999999997 -0.050629544999999991 -0.0047762749999999991 -0.033599534999999993 0.064188485000000003 0.0015487100000000002 -0.0029210799999999995 0.02203714 -0.034673749999999996 -0.13760690499999997 0.062644555000000018 0.0097845950000000018 0.0018015600000000002 -0.35262992999999992 0.035564410000000005 0.026823480000000004 0.0067479950000000006 0.041687390000000012 0.0027865950000000007 -0.026815784999999998 -0.10755862999999999 -0.020270824999999996 -0.0096627799999999976 0.0084970700000000007
decision_type=2 2 2 2 2 2 2 2 2 2 2 2 2 2 2 2 2 2 2 2 2 2 2 2
left_child=4 17 6 -4 5 8 9 14 20 -3 12 -11 13 -7 15 22 -14 19 -9 -2 -1 -15 -5 -23
right_child=1 2 3 7 -6 10 -8 18 -10 11 -12 -13 16 21 -16 -17 -18 -19 -20 -21 -22 23 -24 -25
leaf_value=-0.0029010521985173938 0.0016932059411178713 -0.0032893835352757147 0.0018554366684458677 0.012246932211936394 -0.0051835620864960075 -0.0015282515468929827 -0.002185283953239399 0.019846894273073006 -0.0044192171157369379 0.0092678073821096472 -0.0026422542233615755 0.0015710223177451998 -0.0020229026864948727 0.00082825437836044123 0.00085175264082448733 0.013608893747893281 0.0018854780749614692 -0.0070474212797202564 0.01152514753839835 -0.0042998622387605632 0.00012834792189757784 0.0053804789562047449 0.0038900672294573781 0.01359312198512877
leaf_count=5167 1712 696 2459 611 4899 963 3852 1096 7228 1651 3259 1070 3469 1063 456 1412 5507 1289 717 1627 8448 2180 1045 480
internal_value=0 0.0597412 0.095593 0.168626 -0.0275762 -0.0177046 0.0172652 0.229222 -0.0439932 0.0859979 0.0146772 0.124823 0.0307843 0.0753857 0.1768 0.200546 0.00749973 -0.056963 0.331117 -0.0245409 -0.0204267 0.102791 0.139469 0.137249
internal_count=62356 19693 15065 7796 42663 37764 7269 5337 20843 3417 16921 2721 13662 4686 3524 3068 8976 4628 1813 3339 13615 3723 1656 2660
shrinkage=0.05


Tree=4
num_leaves=25
num_cat=0
split_feature=79 55 20 50 81 55 57 64 64 64 10 86 55 30 81 58 10 55 41 10 7 41 57 55
split_gain=109.565 129.818 88.2631 75.4503 43.4814 30.0443 25.1182 22.9019 18.5839 16.137 14.5787 13.5193 13.4307 13.75 12.8257 12.347 11.4557 11.5303 9.4343 9.41682 8.59337 8.51275 8.4858 8.46231
threshold=-0.0084871749999999978 1.0000000180025095e-35 -0.10851160999999999 -0.00065794999999999992 0.00076370500000000005 0.40437177000000007 -0.0044062649999999986 0.012036490000000002 0.019539015000000003 0.008821925000000003 -0.020453114999999997 -0.025518129999999997 0.026451480000000003 0.5322985950000001 -0.16506117499999998 -0.45577634999999994 -0.012282679999999999 0.030195550000000005 -0.034996534999999988 -0.0044925249999999989 -0.10273095999999998 -0.016267264999999996 0.014167570000000003 0.010605005000000002
decision_type=2 2 2 2 2 2 2 2 2 2 2 2 2 2 2 2 2 2 2 2 2 2 2 2
left_child=7 2 -2 8 14 6 12 16 10 11 -4 -6 -3 19 -5 -15 23 -18 -12 -14 -9 -10 -16 -1
right_child=1 5 3 4 9 -7 -8 20 21 -11 18 -13 13 15 22 -17 17 -19 -20 -21 -22 -23 -24 -25
leaf_value=-0.0014986423533573552 -0.0038241113036365151 0.0058310113030996362 0.0018900409327321796 -0.003032976457237083 0.0082371035358393754 -0.0035682371232112807 -0.0025725515648917785 -0.0073584463527685776 0.0036352336330854763 0.010060788151552506 0.015282149269521093 0.020604980322124378 -0.0041741123215149551 0.025837422329932455 0.011264698006427633 -0.0015105248665135793 0.0032387716084210519 -0.00096976401389404002 0.0067835611629121608 0.0012938725015078278 -0.0033195342214158217 -0.0030994870724292741 0.0051313015793629712 -0.0068916528804681895
leaf_count=2567 1966 1722 1419 264 255 5673 4609 1455 795 696 409 1655 851 105 1300 68 2431 4924 1620 10534 13882 1145 996 1015
internal_value=0 0.0357696 0.118056 0.154294 0.240643 -0.00795416 0.0121547 -0.0491223 0.0715027 0.331573 0.115555 0.379075 0.03423 0.0219548 0.14808 0.301759 -0.0141606 0.00842511 0.169934 0.0177031 -0.074054 -0.0067928 0.172081 -0.0605363
internal_count=62356 36082 12520 10554 5166 23562 17889 26274 5388 2606 3448 1910 13280 11558 2560 173 10937 7355 2029 11385 15337 1940 2296 3582
shrinkage=0.05


Tree=5
num_leaves=25
num_cat=0
split_feature=18 26 33 57 50 69 64 14 64 74 82 8 14 14 91 76 33 83 47 82 82 57 64 86
split_gain=85.9048 70.4301 62.0021 42.4687 31.7849 31.424 30.1873 28.5122 23.4364 19.8867 16.8044 16.462 23.1244 15.8957 15.1645 13.6363 14.1084 13.089 12.364 12.257 12.2176 11.9857 11.7992 15.2599
threshold=-0.0037761699999999997 0.048224465000000001 -0.0047762749999999991 0.013148085000000002 -0.00065794999999999992 0.19851022500000004 -0.0043636099999999995 0.057242110000000006 -0.0065522149999999993 0.16159262000000005 -0.016209649999999996 0.57163080500000019 -0.37279863499999993 -0.020667049999999996 -0.011911054999999999 -0.228472545 0.026765580000000001 0.039089465000000011 -0.051463454999999998 0.022767025000000003 0.0094631600000000017 0.0062093650000000005 0.037147325000000002 0.0064323900000000005
decision_type=2 2 2 2 2 2 2 2 2 2 2 2 2 2 2 2 2 2 2 2 2 2 2 2
left_child=4 2 6 5 -1 8 14 9 17 10 -6 12 -12 -10 -2 -5 -17 -4 -3 -9 -8 -16 23 -14
right_child=1 18 3 15 7 -7 20 19 13 -11 11 -13 22 -15 21 16 -18 -19 -20 -21 -22 -23 -24 -25
leaf_value=-0.0033094762974538367 -0.00014545207737751728 -0.0070127230174504259 0.018978555001849768 -0.0040090856002832232 -0.0012522666771139221 -0.0056499502347437461 -0.0045964398296203411 -0.0041652457064700497 0.012994768785326913 -0.0051599751141322711 0.020932218807563695 -0.0020757266502200327 0.0017477286777128548 0.0037001339718826273 0.009031167727972262 0.0015286572804105007 0.0076975842005298709 0.0089826267866734595 -0.0011154002308117383 -0.00096696114871964696 0.00088920034125335656 0.0018923555820094307 0.0010120370913081092 0.0071986551162154903
leaf_count=13114 1325 1488 1298 494 3986 262 2124 4594 922 1197 183 1653 2464 918 1626 1731 1995 438 2207 8610 1944 921 4181 2681
internal_value=0 0.054631 0.0833717 0.145169 -0.0252174 0.221293 0.0206564 -0.00703371 0.245786 0.0208856 0.0306908 0.0505944 0.0666062 0.167151 0.0838575 0.0759351 0.0966333 0.329131 -0.0698058 -0.0415945 -0.0394997 0.128995 0.0596983 0.0917629
internal_count=62356 19693 15998 8058 42663 3838 7940 29549 3576 16345 15148 11162 9509 1840 3872 4220 3726 1736 3695 13204 4068 2547 9326 5145
shrinkage=0.05


Tree=6
num_leaves=25
num_cat=0
split_feature=84 41 79 16 84 82 41 78 84 16 94 33 16 33 8 10 41 33 78 94 30 75 78 10
split_gain=110.966 164.128 65.2588 56.4516 31.2497 23.4877 24.693 23.3191 21.069 20.3524 16.3039 14.3573 13.2037 12.8246 12.3468 11.7583 12.8701 11.7573 12.0591 11.3712 11.3497 15.9585 9.28851 9.05449
threshold=0.013931310000000001 0.011185180000000001 0.0030058300000000006 -0.016038444999999998 -0.010489559999999998 -0.0042757299999999993 0.09846505500000001 0.011605980000000002 -0.044777154999999992 -0.073448674999999977 -0.21695597999999996 0.0031010800000000004 -0.18639189499999997 0.010679455000000003 0.85200598500000002 -0.37059463499999995 -0.020516094999999995 0.0046368450000000014 -0.0047214499999999994 -0.40979308999999992 0.5322985950000001 -0.85590475499999996 -0.022141834999999995 0.013465050000000001
decision_type=2 2 2 2 2 2 2 2 2 2 2 2 2 2 2 2 2 2 2 2 2 2 2 2
left_child=1 2 10 12 7 -3 8 11 9 -7 -1 -5 -4 -6 20 -2 19 -12 -19 -17 -8 -22 -11 -14
right_child=15 5 3 4 13 6 14 -9 -10 22 17 -13 23 -15 -16 16 -18 18 -20 -21 21 -23 -24 -25
leaf_value=-0.0070540711433139105 -0.0075369266677005166 -0.002806723923493648 -0.0032015409469677738 0.01321386300903798 0.0019696214019545711 0.0012898957724222274 -0.0004402662889691769 0.0079943717304138337 6.0195585839862518e-05 0.013002410255971231 -0.00032284976463649111 0.02113555634488375 0.001458507762896106 0.010977970927389877 -0.0047372295698599326 -0.006482693370769445 -0.0045197309543339751 0.0094123956575560518 0.0019880820304073545 -0.00038665817881264835 0.023467358302323039 -0.00390792900453965 0.0059086520408982331 0.0081984452011646912
leaf_count=488 1777 8539 604 984 754 1506 17856 813 3465 840 1870 1366 892 830 1719 914 7819 928 1332 4692 118 97 1024 1129
internal_value=0 0.0239523 0.124987 0.183378 0.248451 -0.010498 0.00413824 0.305868 0.055958 0.112256 0.0317744 0.356371 0.0657014 0.133798 -0.0137591 -0.0742959 -0.0641775 0.052199 0.100733 -0.0276111 -0.00605535 0.222333 0.182108 0.104473
internal_count=62356 47154 11990 7372 4747 35164 26625 3163 6835 3370 4618 2350 2625 1584 19790 15202 13425 4130 2260 5606 18071 215 1864 2021
shrinkage=0.05


Tree=7
num_leaves=25
num_cat=0
split_feature=88 18 78 14 64 69 14 36 78 57 14 21 64 64 35 82 78 14 21 33 78 14 10 64
split_gain=79.0242 74.2932 65.7736 57.7494 20.223 19.8829 25.6955 18.7176 17.2626 16.7279 15.8293 15.1904 15.011 12.0138 10.75 11.4038 10.5554 11.7786 10.3381 10.1649 10.0629 15.5664 9.58381 9.19755
threshold=-0.045252414999999997 0.0046486850000000005 0.011605980000000002 0.0031018150000000004 0.0040928250000000005 0.057901015000000007 1.0000000180025095e-35 -0.061887149999999995 -0.0035399199999999998 -0.058036809999999987 0.066717970000000001 0.0050381549999999999 0.022441455000000003 -0.021040559999999996 -0.28429311499999993 0.020603840000000002 0.078890535000000026 -0.023872454999999997 0.0067479950000000006 0.011428080000000002 -0.013205109999999997 0.068345535000000013 -0.074242309999999992 0.010765600000000002
decision_type=2 2 2 2 2 2 2 2 2 2 2 2 2 2 2 2 2 2 2 2 2 2 2 2
left_child=7 5 3 4 11 6 8 -1 12 20 13 -3 -2 -5 -9 -16 17 -4 -10 -6 21 23 -13 -8
right_child=1 2 16 10 19 -7 9 14 18 -11 -12 22 -14 -15 15 -17 -18 -19 -20 -21 -22 -23 -24 -25
leaf_value=-0.0056115758732336596 0.0085151596830724055 0.0087101673422880031 0.0049576233148659905 0.0095597423990705036 0.0033260393606786907 -0.0028782576885176461 0.0095094048819090761 -0.0063121523427667366 -0.0019949023892136502 -0.003705306305566103 -0.0017753957103352103 0.0030125426617451014 0.0019018868932310614 0.0015866528019886938 -0.0029807061416466272 -0.00025253540468144148 -0.0030274400741713853 -0.0005161281109292567 0.0020384819057531951 0.011524146071387693 -0.0017969733821860058 -0.00063684409501759656 0.017650578293619996 0.0021137674461507625
leaf_count=3959 1678 915 1653 894 902 5511 792 1219 2234 4180 1326 120 1756 1002 6768 8825 1659 2424 5500 651 3364 2488 1640 896
internal_value=0 0.0251595 0.0871894 0.149161 0.22602 -0.0036418 0.00934193 -0.050371 0.0436662 -0.0233657 0.0483058 0.278716 0.102668 0.106922 -0.0358037 -0.0287335 0.00669921 0.0340636 0.0174684 0.135252 0.00476365 0.0375523 0.333051 0.111675
internal_count=62356 41585 13186 7450 4228 28399 22888 20771 11168 11720 3222 2675 3434 1896 16812 15593 5736 4077 7734 1553 7540 4176 1760 1688
shrinkage=0.05


Tree=8
num_leaves=25
num_cat=0
split_feature=84 41 82 21 33 98 27 78 23 98 14 78 23 78 64 84 84 16 74 41 98 21 33 82
split_gain=96.0113 139.638 51.8947 50.9452 34.8186 21.2399 20.5616 19.6704 17.9122 16.6478 16.4594 16.297 11.6525 11.6425 10.6395 10.1233 9.79891 12.0836 9.73619 12.5866 9.89478 8.81231 8.78073 12.0558
threshold=0.013931310000000001 0.011185180000000001 -0.016999824999999996 -0.0053850999999999994 0.0046368450000000014 0.017889570000000004 0.69223028500000006 -0.0053009649999999986 -0.015554959999999998 0.023686810000000003 0.038876010000000009 0.00059312000000000004 -0.073028604999999983 -0.052039959999999989 0.030110240000000003 -0.0078390549999999993 -0.048843354999999998 -0.057249929999999997 0.15117434500000002 -0.022655604999999995 0.31730164500000008 0.023831990000000001 0.012275850000000001 -0.089712314999999973
decision_type=2 2 2 2 2 2 2 2 2 2 2 2 2 2 2 2 2 2 2 2 2 2 2 2
left_child=1 2 22 9 8 6 10 -6 -5 12 11 14 -4 -12 16 -10 17 -3 19 20 -2 -13 -1 -24
right_child=18 5 3 4 7 -7 -8 -9 15 -11 13 21 -14 -15 -16 -17 -18 -19 -20 -21 -22 -23 23 -25
leaf_value=-0.0020216705315526749 -0.0002749504259050527 0.0053330918648733065 -0.004501957978475692 0.0012341099103227757 0.018575530386808668 -0.0029925832450292634 -0.0032405695193423074 0.010584970424474344 0.01265542441252337 -0.0034291429006729382 0.0010290684944638442 -0.0014589806951903555 0.0063791315960176776 -0.0020087705957067071 0.0015341506295563499 0.003336484101319068 0.0028305545441724878 0.014318413077289411 -0.0065480288578735517 -0.0042041180599570625 -0.0073391078551195525 0.0020933972770719972 -0.0037466623291903325 0.0054072096424581688
leaf_count=1639 4640 946 284 1032 1413 6765 3913 1693 990 829 5921 3206 1841 6749 2047 413 1165 619 2180 7827 555 3833 488 1368
internal_value=0 0.0222799 0.115473 0.157671 0.214214 -0.00949639 0.00249888 0.284402 0.124685 0.0516091 0.0132554 0.0401027 0.0984981 -0.0117823 0.085184 0.198244 0.12605 0.177741 -0.0691084 -0.0587538 -0.0205928 0.00950845 0.0129051 0.0600075
internal_count=62356 47154 11990 8495 5541 35164 28399 3106 2435 2954 24486 11816 2125 12670 4777 1403 2730 1565 15202 13022 5195 7039 3495 1856
shrinkage=0.05


Tree=9
num_leaves=25
num_cat=0
split_feature=84 18 79 34 21 14 95 79 85 95 86 64 34 64 83 10 92 34 21 95 18 21 10 89
split_gain=86.6502 92.8546 53.8519 52.2145 38.8723 19.9315 15.9435 14.5859 19.7157 15.8908 11.6273 11.2868 10.8719 9.73448 9.43684 9.42579 10.4106 9.21981 8.71194 8.28647 7.70692 7.57925 7.4972 7.3284
threshold=0.013931310000000001 -0.021018349999999995 -0.0046471649999999991 0.041579125000000001 0.013676480000000003 -0.015148304999999999 -0.004443289999999999 -0.015791829999999996 0.41244080500000008 -0.0070669999999999995 -0.023676094999999998 0.017399615000000004 -0.032316954999999987 1.0000000180025095e-35 0.095001565000000024 -0.37059463499999995 0.016859195000000004 0.13574236000000003 -0.073016614999999993 0.048933250000000005 -0.14484793499999998 -0.15062060999999996 -0.012282679999999999 -0.037508999999999994
decision_type=2 2 2 2 2 2 2 2 2 2 2 2 2 2 2 2 2 2 2 2 2 2 2 2
left_child=1 7 11 4 6 10 -4 19 9 -9 -6 22 18 23 -8 -2 -17 -5 -11 -1 -21 -14 -3 -7
right_child=15 2 3 17 5 13 14 8 -10 12 -12 -13 21 -15 -16 16 -18 -19 -20 20 -22 -23 -24 -25
leaf_value=-0.0036738963677980354 -0.0067047441215732613 -0.00079609428688159716 0.001599315080064969 0.0020722892103346084 0.0071137128683178147 0.0041069789543510989 0.0084309533221023913 -0.00087958924071706234 -0.0037315380167518919 0.0025690611596949011 0.016812782495699265 -0.0030150978793973301 -0.0033940141993279993 0.0027719555976153665 -0.0038212438954382077 -0.0039286291014650121 -0.0010655723324318007 -0.0044170432253551996 0.010076612603624718 -0.0018137435464462975 0.0016136575541344071 0.0020782997848470004 0.0039401446776696552 0.012633080386752272
leaf_count=4121 1777 1539 2081 1360 379 342 2243 6438 2522 804 1673 1937 695 619 169 8272 5153 916 744 6533 2190 7063 1828 958
internal_value=0 0.0211659 0.0829584 0.123672 0.159829 0.231915 0.0961185 -0.0107017 0.00745536 0.0206046 0.300428 0.00051716 0.0470293 0.158655 0.15145 -0.065653 -0.0565937 -0.0107882 0.123547 -0.0365235 -0.0190652 0.0317613 0.0355058 0.207801
internal_count=62356 47154 16044 10740 8464 3971 4493 31110 18266 15744 2052 5304 9306 1919 2412 15202 13425 2276 1548 12844 8723 7758 3367 1300
shrinkage=0.05


Tree=10
num_leaves=25
num_cat=0
split_feature=84 41 64 4 55 14 16 52 84 41 16 84 29 63 55 84 29 55 34 65 66 14 20 16
split_gain=78.2602 112.256 47.5822 44.3761 35.6732 17.7867 18.2617 16.5742 16.5107 24.6565 15.8263 13.5704 12.5787 11.6623 9.39276 10.4875 9.39007 9.35825 9.27456 9.26296 12.4587 8.70513 7.8535 7.7615
threshold=0.017837020000000002 0.011185180000000001 0.0061643450000000008 0.064188485000000003 -0.027611474999999996 -0.014428939999999999 -0.0053881199999999988 -0.47264005499999995 -0.021737389999999995 0.058688455000000007 -0.027688529999999996 -0.021737389999999995 -0.013219779999999999 -0.020576584999999998 0.33722697500000004 -0.068554214999999988 0.018907055000000002 1.0000000180025095e-35 0.018492150000000002 -0.0079316549999999975 -0.19837008499999995 -0.020667049999999996 -0.0017860799999999998 -0.087800139999999985
decision_type=2 2 2 2 2 2 2 2 2 2 2 2 2 2 2 2 2 2 2 2 2 2 2 2
left_child=1 2 3 4 10 6 -4 -3 9 16 -1 -12 -6 -8 15 -11 -9 -14 -15 -2 -21 -22 -13 -18
right_child=19 7 5 -5 12 -7 13 8 -10 14 11 22 17 18 -16 -17 23 -19 -20 20 21 -23 -24 -25
leaf_value=0.0065416247402353932 -0.0048696584714681378 -0.0039823705809283383 -0.00040932724871967801 -0.0043867126500464065 0.0019594365511632836 -0.0019844669040774898 0.0030209565051073127 0.0011988519663665737 -0.0029054583521848573 0.00085241072976813314 0.018832221107025499 0.0031570328320677001 0.011712675735303522 0.0127784291486023 -0.0019473284230155077 -0.002392033990916228 0.0013810955992787435 0.0050655492612750068 0.00081937792676035318 -0.0056286470123457985 0.0013188534779588661 -0.0024946554239225691 0.01370701751475102 0.0081722943838558101
leaf_count=645 5485 3075 1501 672 1335 2122 1022 1567 4633 15018 1244 248 988 856 6162 2986 580 1141 200 2077 2272 4384 611 1532
internal_value=0 0.0192534 0.100419 0.156376 0.182783 0.032851 0.0758605 -0.00947753 -0.00283388 0.00636311 0.267864 0.309893 0.115287 0.13657 -0.00524749 0.00628626 0.0826289 0.163005 0.210269 -0.0651863 -0.0449578 -0.0238586 0.213223 0.126146
internal_count=62356 48138 12585 6884 6212 5701 3579 35553 32478 27845 2748 2103 3464 2078 24166 18004 3679 2129 1056 14218 8733 6656 859 2112
shrinkage=0.05


Tree=11
num_leaves=25
num_cat=0
split_feature=84 41 16 79 55 31 31 33 97 21 33 84 79 83 33 55 55 16 63 63 90 63 60 84
split_gain=71.1299 117.036 53.8691 38.8356 19.2807 16.8791 16.5988 16.16 13.5727 13.99 12.3488 12.3336 12.1771 15.5998 11.8844 12.1613 9.97412 8.97212 8.81665 8.70851 8.57509 7.95212 7.74371 7.60352
threshold=0.0035073950000000004 0.032715120000000007 -0.010754544999999999 0.012254805000000002 -0.019519769999999995 0.089717160000000018 0.11419781500000002 -0.10755862999999999 -0.0083477799999999974 -0.066696539999999985 0.021493620000000001 0.056731780000000002 -0.015791829999999996 -0.00083717999999999998 0.0046368450000000014 -0.016874789999999997 -0.0054021049999999991 -0.062366914999999995 0.021370865000000003 -0.027081414999999994 0.013115660000000003 0.050764385000000002 0.069010120000000022 -0.055601699999999997
decision_type=2 2 2 2 2 2 2 2 2 2 2 2 2 2 2 2 2 2 2 2 2 2 2 2
left_child=1 2 5 14 6 16 20 -3 9 -2 -11 -12 21 18 -4 22 19 -15 -14 -1 -5 -9 -16 -20
right_child=8 7 3 4 -6 -7 -8 12 -10 10 11 -13 13 17 15 -17 -18 -19 23 -21 -22 -23 -24 -25
leaf_value=0.00024916770406185228 -0.0060874852332975619 -0.0025515366466731882 0.00094987936167502526 0.01235863655190066 0.0075432825440691249 -0.0045473092027815401 -0.0016796941674935323 -0.0026658629208753601 -0.0038043024243821382 -0.0018171943788888095 0.0054005280979261272 -0.0019818387997522688 0.0013482723829362909 -0.0020235810450221765 0.013565062874754187 0.002433847171458232 0.00046534559929922275 0.0028167107014082562 0.006543066195663496 0.0066914185064529293 0.019020535806611963 0.00033335264389775481 0.0011671977680957606 -8.9580852481160769e-05
leaf_count=727 1163 7787 1604 905 1716 941 144 5097 10485 4073 1538 895 6238 4615 672 745 2470 1208 1786 1884 1036 3902 155 570
internal_value=0 0.0216447 0.101368 0.161174 0.229372 0.0320763 0.293985 -0.0115674 -0.0527014 -0.02073 -0.00267189 0.0536972 0.00155618 0.0195729 0.0795558 0.141347 0.05486 -0.0203889 0.0466497 0.0979531 0.318288 -0.0273078 0.224828 0.0987679
internal_count=62356 44202 12999 6977 3801 6022 2085 31203 18154 7669 6506 2433 23416 14417 3176 1572 5081 5823 8594 2611 1941 8999 827 2356
shrinkage=0.05


Tree=12
num_leaves=25
num_cat=0
split_feature=55 55 64 14 63 57 14 33 66 64 57 86 58 78 78 16 8 33 66 55 23 13 78 97
split_gain=64.7136 71.9078 47.5442 27.5319 26.9167 24.3041 16.3086 15.7386 15.3199 14.1897 13.3493 12.9651 12.9445 12.426 12.3532 11.9935 10.6195 9.05517 8.60373 8.51487 7.57521 7.30368 6.74455 6.63808
threshold=-0.0044804850000000002 -0.23369856999999997 0.019539015000000003 -0.011309504999999999 -0.027990184999999997 -0.0044062649999999986 1.0000000180025095e-35 0.011428080000000002 -0.083057689999999976 -0.011277594999999998 -0.0078954749999999973 -0.028372514999999997 0.077987975000000015 0.026000160000000005 -0.0047214499999999994 0.018421915000000004 -0.0022047299999999998 -0.099146739999999997 -0.18714772999999998 0.082130855000000016 -0.059262739999999994 0.017957735000000002 -0.044829824999999997 -0.011258834999999997
decision_type=2 2 2 2 2 2 2 2 2 2 2 2 2 2 2 2 2 2 2 2 2 2 2 2
left_child=1 -1 3 4 15 6 8 -4 -2 16 11 -5 14 17 -6 -3 -8 -10 -9 -18 -13 -16 -11 -20
right_child=5 2 7 10 12 -7 9 18 13 22 -12 20 -14 -15 21 -17 19 -19 23 -21 -22 -23 -24 -25
leaf_value=-0.0039374083165243847 -0.0023249481086930601 0.00013358255937776016 -0.0019458350743340872 0.0010727098565208721 0.014889865990140314 -0.0032165589948337649 -0.0033065600924062168 -0.0051931079472863125 -0.0031074398804703997 -0.00085271720954129362 0.0010299573114974068 -0.00067157571494130732 -0.0018505813254575646 0.00055726901432648541 0.010904553653377074 0.0084324845368807383 0.0042870858302992195 0.0053451838169000501 0.0068324749843365132 0.00020976355361767329 0.0099380525598550158 0.0033015258481552071 -0.0031061384980515948 0.00079140251744886508
leaf_count=3705 2438 1070 3536 863 1620 10312 1471 255 353 5615 2952 191 182 4875 1033 734 1824 3094 1217 4297 1412 455 8126 726
internal_value=0 0.0469661 0.075636 0.11559 0.16837 -0.022097 -0.00852641 0.00238913 0.0232147 -0.0245361 0.0659669 0.120276 0.222197 0.043638 0.237376 0.0702037 0.0101608 0.0895914 0.0688393 0.0284953 0.173478 0.171594 -0.0437064 0.0915047
internal_count=62356 19951 16246 10512 5094 42405 32093 5734 10760 21333 5418 2466 3290 8322 3108 1804 7592 3447 2198 6121 1603 1488 13741 1943
shrinkage=0.05


Tree=13
num_leaves=25
num_cat=0
split_feature=79 55 20 16 10 13 64 57 39 64 64 55 83 57 55 30 97 58 79 10 69 55 60 8
split_gain=62.8879 66.9839 45.4202 45.4556 29.1468 22.0232 21.0707 20.8167 17.1473 14.9223 13.1975 12.5079 11.7356 10.7978 10.7827 9.9349 8.47489 8.1751 7.69645 7.42349 7.08029 6.89363 9.54682 6.86512
threshold=-0.0046471649999999991 0.025254700000000005 -0.12664071999999996 0.016203285000000001 0.0021596700000000003 1.0000000180025095e-35 -0.0043636099999999995 -0.035265169999999992 -0.013814674999999997 0.029218455000000004 0.018774215 0.39524671500000003 0.039089465000000011 0.0093300200000000014 -0.028666139999999996 0.48044513000000005 -0.0046644049999999991 -0.45577634999999994 0.042203370000000011 -0.040833604999999995 0.057901015000000007 0.038771605000000008 0.043056565000000012 -0.057406059999999988
decision_type=2 2 2 2 2 2 2 2 2 2 2 2 2 2 2 2 2 2 2 2 2 2 2 2
left_child=8 2 -2 4 14 -5 12 11 9 21 13 15 -6 23 19 20 -10 -17 -8 -4 -3 22 -1 -7
right_child=1 7 3 5 6 10 18 -9 16 -11 -12 -13 -14 -15 -16 17 -18 -19 -20 -21 -22 -23 -24 -25
leaf_value=0.0043128977737180163 -0.0030747092624425639 0.001865141276217056 -0.0020540857383862308 0.014004776336310466 0.011232528081869178 -0.0016660065792465607 0.00053521894593930915 -0.0032348735656369493 -0.0018745443785121376 -0.0025576139076133285 0.0018244438708487462 -0.0017780838760671118 0.00280388017871081 0.0054183402190051792 -0.00294741054623042 0.02177373732707498 -0.0043324532350074814 0.00036915736732465263 0.0060262033270353406 0.0053557089579913536 -0.0014896465197346837 -0.0003857734070253145 -0.0015169377301703522 0.013672795791692905
leaf_count=2364 2017 8027 532 1479 1581 79 1833 5173 7640 5327 989 4372 559 1128 2090 108 6483 76 979 927 1956 4686 999 952
internal_value=0 0.0282071 0.0782187 0.0996843 0.0562724 0.179443 0.105843 -0.0102176 -0.0357545 -0.0100955 0.132155 0.00916649 0.180617 0.175978 -0.0128944 0.0284004 -0.0600564 0.258654 0.0489382 0.053077 0.0241565 0.0170767 0.0516222 0.249949
internal_count=62356 34857 15145 13128 8501 4627 4952 19712 27499 13376 3148 14539 2140 2159 3549 10167 14123 184 2812 1459 9983 8049 3363 1031
shrinkage=0.05


Tree=14
num_leaves=25
num_cat=0
split_feature=79 55 20 78 82 83 81 16 39 64 78 16 13 10 13 16 10 82 41 85 55 10 10 79
split_gain=56.7563 61.2496 52.6245 31.6281 22.6404 21.9989 17.2795 16.6761 15.4755 13.4904 11.2333 11.1941 10.5615 9.52314 8.03852 8.01265 11.2496 6.78412 9.62549 5.74672 10.5188 6.48958 5.72554 5.61516
threshold=-0.0046471649999999991 -0.010767984999999999 -0.10851160999999999 -0.011916634999999998 -0.0013873499999999999 0.052416505000000009 -0.025401174999999995 0.0084970700000000007 -0.013814674999999997 0.025374360000000002 -0.0023146749999999995 -0.021779879999999998 -0.0066245099999999993 -0.006752194999999999 0.022723820000000002 -0.055541354999999994 0.023550415000000002 -0.014749329999999998 0.014556535000000001 -0.38022188999999995 -0.028666139999999996 -0.029658569999999999 0.08473480500000001 0.04454439000000001
decision_type=2 2 2 2 2 2 2 2 2 2 2 2 2 2 2 2 2 2 2 2 2 2 2 2
left_child=8 2 -2 6 -3 10 -4 13 9 17 15 -8 -9 -5 -13 22 -17 -1 -19 -10 21 -21 -6 -12
right_child=1 4 3 7 5 -7 11 12 19 -11 23 14 -14 -15 -16 16 -18 18 -20 20 -22 -23 -24 -25
leaf_value=-0.0017782052509125576 -0.0030066305677395344 -0.0022063356719268191 0.0035434773625445193 -0.0023828137996840977 -0.0029000631328282237 -0.0015200935725078841 0.0066202051710460815 0.013172627818558102 -0.0058634414448772501 -0.002370630903898227 -0.0010977606119538649 0.016916680058039615 0.005137141731044681 0.0035585961850318031 0.01013530544010724 0.0021512728934874759 0.010214607308492513 0.0057018151677194423 0.00067564760358349279 -0.0023440547246197773 -0.0032659881664310313 0.002549342762091884 0.0034273346073760455 0.002033583971399106
leaf_count=1866 1859 7939 757 1080 412 5599 665 541 1425 5531 2226 1091 1675 1796 729 750 1022 1189 4790 1282 9979 1437 2704 4012
internal_value=0 0.0267967 0.0920027 0.125938 -0.00015124 0.020723 0.203144 0.0767828 -0.0339668 -0.00959073 0.0464508 0.243438 0.141977 0.0265494 0.284008 0.0823464 0.136036 0.017075 0.0335033 -0.0570536 -0.0502961 0.00484242 0.0518144 0.0183236
internal_count=62356 34857 10193 8334 24664 16725 3242 5092 27499 13376 11126 2485 2216 2876 1820 4888 1772 7845 5979 14123 12698 2719 3116 6238
shrinkage=0.05


Tree=15
num_leaves=25
num_cat=0
split_feature=84 55 84 33 21 50 29 98 30 8 78 55 39 76 55 84 63 29 20 20 28 20 29 33
split_gain=59.1546 78.3007 57.2949 29.7811 20.6297 18.9696 15.9644 12.3308 12.4472 13.3077 11.686 11.2939 13.4446 11.1739 11.0572 11.6268 9.82357 9.32178 8.64871 8.59203 8.16283 8.09236 8.07962 7.38829
threshold=-0.0025841499999999995 0.025254700000000005 -0.20306370999999998 0.005441060000000001 0.0058557700000000006 -0.0013070299999999998 -0.072159544999999992 -0.035842654999999994 0.58291936000000011 0.45537344000000007 0.011605980000000002 -0.016874789999999997 0.028553470000000001 0.31018220000000002 0.23724258500000003 -0.13298854999999996 -0.031967674999999994 -0.017673494999999997 -0.22316282499999998 0.0060391300000000011 -0.10337818999999999 -0.055175794999999993 -0.012238229999999998 0.027690680000000006
decision_type=2 2 2 2 2 2 2 2 2 2 2 2 2 2 2 2 2 2 2 2 2 2 2 2
left_child=1 2 -1 5 16 -4 -6 14 -9 -10 -8 12 19 17 15 18 -5 -7 -3 -2 -21 -17 -18 -22
right_child=11 7 3 4 6 13 10 8 9 -11 -12 -13 -14 -15 -16 21 22 -19 -20 20 23 -23 -24 -25
leaf_value=-0.0018063235789344081 -0.0014287324471278658 -0.00021500397944268273 7.5030361303365105e-07 -0.00083793577573999789 0.0010881184016789591 0.0018220246995641145 0.01430428428016199 -0.0026068820687391251 0.021697987916202033 -0.0007811284246400181 0.0072983677239070125 -0.003127320961651252 -0.0032455707238290819 -0.0058997589945044351 -0.0010819383564054106 -0.0018719209746919025 0.00036731792874343229 0.0078572338075739625 0.0044090270221920323 -0.0031173920092869745 0.0022460044479324648 0.0022080118434762903 0.0084642499594655418 0.0087107707694586787
leaf_count=3354 1754 1434 2627 595 367 863 1959 7484 110 164 855 12907 2880 199 9624 3268 400 2474 3430 419 1220 1935 1341 693
internal_value=0 0.0210659 0.0790756 0.112157 0.165526 0.0643814 0.217929 -0.0107065 -0.0444734 0.164867 0.243512 -0.045033 -0.0125832 0.112201 0.00259727 0.0257668 0.0941688 0.125929 0.0609155 0.0243001 0.0640695 -0.00709181 0.132079 0.0917584
internal_count=62356 42483 15034 11680 5517 6163 3181 27449 7758 274 2814 19873 6966 3536 19691 10067 2336 3337 4864 4086 2332 5203 1741 1913
shrinkage=0.05


Tree=16
num_leaves=25
num_cat=0
split_feature=66 14 95 21 34 50 64 99 70 95 95 21 91 29 26 18 57 87 57 29 47 49 21 21
split_gain=43.4801 54.3189 44.8728 32.2207 26.2104 29.8938 23.3378 13.1564 12.6499 12.1224 11.1166 14.2646 10.5374 8.97229 8.85308 8.34357 9.14907 8.32518 8.17767 7.05838 6.74522 6.73032 6.70028 6.5638
threshold=-0.06805594999999999 1.0000000180025095e-35 -0.021860804999999997 -0.066696539999999985 0.0097845950000000018 -0.0019637299999999995 -0.011277594999999998 -0.15592575999999997 -0.025835339999999995 0.0035313100000000006 -0.22815817499999999 0.026576005000000003 -0.0046974399999999989 -0.025156549999999996 0.017306220000000004 0.017897795000000005 0.0041991800000000011 -0.037821164999999997 -0.016383829999999999 -0.055745384999999995 -0.033787724999999991 0.17075728500000001 0.021242795000000005 0.027545730000000001
decision_type=2 2 2 2 2 2 2 2 2 2 2 2 2 2 2 2 2 2 2 2 2 2 2 2
left_child=21 2 10 -4 5 17 8 -7 -3 23 -2 -12 -13 -9 18 16 -6 -5 -10 -14 -17 -1 -15 -8
right_child=1 6 3 4 15 7 9 13 14 -11 11 12 19 22 -16 20 -18 -19 -20 -21 -22 -23 -24 -25
leaf_value=-0.0022860264017599704 -0.0034632779442675373 -0.00046730542299684491 -0.0016860028356823218 0.009427198332688182 0.0036136327605705422 -0.00055043246981608394 -0.0049404999225827915 0.0066199527410917966 0.0080492956147180834 -0.00091314173776569122 -0.0016533039183579093 0.0016227295488988166 0.00013067548278424226 0.01161119686416816 0.00086134326236163511 0.00029342891058726302 -0.0011820765479521383 0.002439393147710031 0.0021287631086151361 0.011811470517831567 0.0088688331463850044 -0.0053782018631953442 0.017425262702721989 -0.0018318316001335667
leaf_count=8128 2044 6745 1885 544 3079 211 3866 529 1171 11266 3349 3113 178 1250 2609 306 1469 1969 1162 473 915 2246 821 3028
internal_value=0 0.0117965 0.0493335 0.0871538 0.107693 0.158293 -0.0160415 0.229142 0.0188151 -0.0384738 -0.00426824 0.0144095 0.0566506 0.248631 0.0572505 0.0609973 0.0412925 0.0790415 0.102009 0.172353 0.134394 -0.0591098 0.278321 -0.0715021
internal_count=62356 51982 22135 12978 11093 5324 29847 2811 11687 18160 9157 7113 3764 2600 4942 5769 4548 2513 2333 651 1221 10374 2071 6894
shrinkage=0.05


Tree=17
num_leaves=25
num_cat=0
split_feature=79 34 21 14 85 58 23 13 34 55 79 50 81 50 21 82 50 21 11 82 14 55 82 85
split_gain=47.8625 58.8712 38.7987 36.5171 16.9566 16.5121 14.2647 12.6807 12.1906 11.2683 14.7193 10.5229 12.3952 10.1023 14.5643 10.3793 9.12815 8.87676 7.50612 7.37602 7.32735 6.96941 6.96842 6.78308
threshold=-0.0046471649999999991 0.028948015000000004 -0.0034777749999999998 -0.023872454999999997 0.35017544000000006 -0.023690099999999995 -0.012205224999999998 -0.027054264999999997 0.32860060000000008 0.030195550000000005 -0.08088683499999999 -0.0092114699999999976 -0.019803779999999997 -0.0032804599999999994 -0.12068777999999998 -0.013286119999999998 0.00057793000000000005 0.0050381549999999999 0.14922210500000002 0.050425850000000008 -0.010524714999999999 -0.030902219999999998 -0.025780584999999998 0.26907335000000004
decision_type=2 2 2 2 2 2 2 2 2 2 2 2 2 2 2 2 2 2 2 2 2 2 2 2
left_child=7 2 13 4 16 8 -5 9 23 10 -1 -8 -13 -2 -15 -16 -4 -9 22 -11 -19 -12 -18 -3
right_child=1 5 3 6 -6 -7 11 17 -10 19 21 12 -14 14 15 -17 18 20 -20 -21 -22 -23 -24 -25
leaf_value=-0.0010521561624834894 -0.0014410259154157491 0.0018978714399695805 0.0081429756764465067 0.00012966513353298244 -0.0031851668505028367 -0.0029822533304920025 0.0011859112735468859 -0.0044829453966047537 -0.0020083477065435374 -0.0028715029709116607 0.0086988150290806063 0.0020466148385458929 0.010058395939833764 -0.0016849133326274812 -0.0023031864154064289 0.0052527960652234296 0.0063926445734224374 0.00081083143747688157 -0.0025722101963222472 -0.00037435032819113667 -0.0029512593619742187 0.0025154359794761889 0.016018036586197246 -0.0019441318268366406
leaf_count=3001 2904 7519 1354 2156 223 5566 1010 4896 4019 5673 646 727 1437 1602 538 2928 222 2051 67 6177 3508 1547 1229 1356
internal_value=0 0.0246077 0.0682131 0.115531 0.201928 -0.0141245 0.0653626 -0.0311921 0.00552552 -0.0143735 0.024464 0.108 0.147336 0.0182065 0.0451533 0.0815988 0.222553 -0.0586102 0.275797 -0.0313965 -0.0312646 0.0867379 0.290907 0.0262171
internal_count=62356 34857 16397 8425 3095 18460 5330 27499 12894 17044 5194 3174 2164 7972 5068 3466 2872 10455 1518 11850 5559 2193 1451 8875
shrinkage=0.05


Tree=18
num_leaves=25
num_cat=0
split_feature=79 78 41 66 98 82 20 64 86 58 63 64 14 27 14 83 7 58 58 10 78 65 90 10
split_gain=43.2038 47.2955 35.2306 23.3161 16.0559 15.2182 13.38 10.9932 10.9607 10.063 10.1106 9.60489 10.1881 8.77404 9.24727 10.6462 12.4372 8.46595 7.8872 7.57508 6.7032 6.46199 6.35685 6.2832
threshold=-0.0084871749999999978 0.026000160000000005 -0.0029843149999999995 -0.026125244999999995 0.0085588000000000018 -0.0028270449999999994 -0.39613670499999992 0.0040928250000000005 0.019285800000000002 1.0000000180025095e-35 0.018420220000000005 1.0000000180025095e-35 0.011306915000000002 0.77171767000000013 -0.04115234999999999 0.46943408000000003 0.96612388000000016 0.13058845000000005 -0.23962342499999997 -0.0010121149999999998 0.084281070000000013 -0.015331619999999999 0.038293350000000011 -0.0055363799999999996
decision_type=2 2 2 2 2 2 2 2 2 2 2 2 2 2 2 2 2 2 2 2 2 2 2 2
left_child=7 2 3 17 6 22 -4 19 21 11 -11 12 -8 14 15 16 20 -2 -18 -1 -3 -7 -5 -9
right_child=1 13 4 5 -6 8 9 23 -10 10 -12 -13 -14 -15 -16 -17 18 -19 -20 -21 -22 -23 -24 -25
leaf_value=-0.0020528294759108254 0.002572055715852136 0.0034738446222104891 -0.0028644297969682448 0.0023323983819868864 -0.002192789674362513 0.003367167247836709 0.011040836592077566 -0.0040812104878402916 0.013727715021592483 -0.0022349576554434292 0.0028619855618167659 0.0024745142614717806 0.0037940493991647805 -0.0043970148847937707 -0.0019184007450514372 -0.0034027510009381882 0.022693627030405748 -0.0054513244787740764 0.0029355965640760311 0.00084269458753251413 -0.00019338188648018145 0.0091742899920952675 0.0093864769343881323 -0.0017858135531859378
leaf_count=3552 1805 2011 1237 1569 2854 686 834 3904 989 1654 2363 3484 1159 1702 6589 1275 112 402 92 6204 3276 1588 401 12614
internal_value=0 0.0224615 0.0530999 0.108414 0.0228065 0.144769 0.0405359 -0.0308464 0.186671 0.0532817 0.0152664 0.0811633 0.136531 -0.0203207 -0.011703 0.0142644 0.0333788 0.0222123 0.275663 -0.00423037 0.0240302 0.148449 0.0753656 -0.0465665
internal_count=62356 36082 21025 7440 13585 5233 10731 26274 3263 9494 4017 5477 1993 15057 13355 6766 5491 2207 204 9756 5287 2274 1970 16518
shrinkage=0.05


Tree=19
num_leaves=25
num_cat=0
split_feature=84 41 31 64 21 97 79 91 98 59 21 14 14 63 41 13 39 71 56 29 63 84 21 84
split_gain=48.3054 75.2534 34.7149 22.6076 18.7394 13.0472 12.8887 12.4384 11.1686 11.372 10.7394 10.3924 7.7038 7.69367 7.67371 9.09562 7.22212 6.92552 7.4233 6.77459 7.52374 6.39475 5.80737 5.52451
threshold=-0.0025841499999999995 0.032715120000000007 0.11419781500000002 0.012036490000000002 -0.0034777749999999998 -0.0097825699999999991 0.04454439000000001 -0.0046974399999999989 -0.035842654999999994 0.32329470000000005 -0.058769694999999997 0.057242110000000006 0.010503800000000002 -0.035167109999999994 -0.013096509999999997 0.012250970000000002 -0.038103454999999987 -0.65225931999999986 0.39902396500000004 0.0018867400000000002 -0.037161989999999999 0.050817955000000005 -0.058769694999999997 -0.018721434999999998
decision_type=2 2 2 2 2 2 2 2 2 2 2 2 2 2 2 2 2 2 2 2 2 2 2 2
left_child=1 2 3 4 19 10 -5 -6 9 11 -2 13 23 -3 15 21 -7 18 -10 -1 -21 -12 -15 -9
right_child=5 8 -4 6 7 16 -8 12 17 -11 14 -13 -14 22 -16 -17 -18 -19 -20 20 -22 -23 -24 -25
leaf_value=-0.00067052147671145383 -0.004794153689123554 0.00079175844625316001 -0.0034156161670128513 0.00044433167259001494 0.0057326248091458601 -0.00085401919875190276 0.0074249037886927275 0.014049368674382813 0.00080303128280148324 -0.0020540970679889677 0.0075593858236319301 -0.00031484101268744723 0.0059259974824235288 0.0016653296210484244 -0.0015670550427430074 1.6200327090253921e-05 -0.0037979867936808187 -0.0021014268569051406 0.019451303740032018 -0.0018385449061290007 0.0068092222457765798 -1.9586290121869886e-05 0.0057514427582750841 0.0082550207912758435
leaf_count=720 1242 4675 1282 2766 1852 2717 869 1520 185 4295 885 9445 571 1597 3168 2524 8931 8532 75 311 1315 406 1909 564
internal_value=0 0.0190363 0.0870237 0.106011 0.139825 -0.0406944 0.0422628 0.177552 -0.00701819 0.00505861 -0.0102025 0.0163019 0.221428 0.0423921 0.0050367 0.0352451 -0.0622256 -0.0371291 0.123647 0.067345 0.103104 0.103518 0.077804 0.249624
internal_count=62356 42483 11770 10488 6853 19873 3635 4507 30713 21921 8225 17626 2655 8181 6983 3815 11648 8792 260 2346 1626 1291 3506 2084
shrinkage=0.05


Tree=20
num_leaves=25
num_cat=0
split_feature=84 16 79 70 97 55 23 33 83 33 84 16 48 40 33 4 33 55 78 50 83 39 16 84
split_gain=43.5956 72.2551 39.9382 25.7677 11.7935 11.3523 10.9886 10.2442 9.76932 10.5859 11.994 10.8105 8.60242 8.39728 8.06549 8.03492 13.8349 10.3868 7.57756 7.10319 6.76212 6.37298 5.90008 5.57025
threshold=-0.0025841499999999995 -0.050940669999999993 0.012254805000000002 -0.013724279999999998 -0.0083477799999999974 -0.016874789999999997 -0.03193577999999999 -0.030178989999999996 0.30438499000000002 -0.084982434999999981 -0.070229454999999982 -0.12730912999999996 -0.35782487999999996 -0.18535648499999999 0.0069866300000000015 0.072183710000000026 0.027690680000000006 0.040096010000000008 -0.016723019999999995 -0.010451879999999998 0.010703790000000001 -0.038103454999999987 -0.018369054999999999 -0.16718964499999997
decision_type=2 2 2 2 2 2 2 2 2 2 2 2 2 2 2 2 2 2 2 2 2 2 2 2
left_child=1 8 6 12 15 13 -3 -8 9 -1 11 23 -4 -5 -14 16 -2 -18 -9 -15 -16 -6 -21 -11
right_child=4 2 3 5 21 -7 7 18 -10 10 -12 -13 14 19 20 -17 17 -19 -20 22 -22 -23 -24 -25
leaf_value=-0.0018780697445568645 -0.001325385777381199 -0.0012564816823746904 -0.0038219327206412954 -0.0044734275700670885 -0.00085107395026247368 0.0056872552906588611 -0.00056227257863161566 0.0080158588820347151 -0.0032129068387662624 0.0010716618754673377 -0.002052217791475147 0.00425597361476479 0.0018993025369928942 0.0070937274990912381 0.011383409395155674 -0.0041202193076483248 0.0051585499215924153 -0.0034455923381507118 0.0025849192676912366 0.0072081412169241344 0.0041303580749088922 -0.0036325261811348611 0.014934075847470033 -0.0014752315084644472
leaf_count=7026 4923 2816 375 80 2693 1341 1499 1012 3078 9279 3899 2252 1670 556 547 1305 1761 438 1758 299 779 8753 1424 2793
internal_value=0 0.0180845 0.0764232 0.129592 -0.0386597 0.187212 0.0233599 0.0553455 -0.0110694 -0.0045854 0.00812872 0.0215137 0.0663476 0.228975 0.0842197 -0.0102687 0.00294907 0.0688953 0.0913815 0.240153 0.142448 -0.0595622 0.271867 0.00964816
internal_count=62356 42483 14156 7071 19873 3700 7085 4269 28327 25249 18223 14324 3371 2359 2996 8427 7122 2199 2770 2279 1326 11446 1723 12072
shrinkage=0.05


Tree=21
num_leaves=25
num_cat=0
split_feature=82 41 21 10 95 86 21 95 21 12 95 18 21 65 86 78 26 8 8 14 34 10 10 78
split_gain=37.4834 45.5546 34.0531 17.7863 17.2547 13.7885 13.7692 12.7566 18.1007 12.2332 11.2494 9.50404 8.02268 7.32609 7.26735 7.26279 7.64061 6.53627 7.17597 6.46594 6.74289 6.12034 6.00809 5.79858
threshold=-0.016999824999999996 0.0019778700000000005 0.0042128600000000014 0.0011554100000000002 -0.028302044999999998 0.016181480000000002 -0.33506822499999994 -0.004443289999999999 -0.030680859999999997 -0.80859058999999989 -0.005327484999999999 -1.1748584499999997 0.014487065000000002 -0.022429134999999996 0.036072675000000005 -0.047660314999999995 0.096824010000000002 -0.0031639049999999994 0.17183227000000004 0.018330455000000002 -0.0061297749999999988 0.022301795000000003 -0.0044925249999999989 -0.03170391999999999
decision_type=2 2 2 2 2 2 2 2 2 2 2 2 2 2 2 2 2 2 2 2 2 2 2 2
left_child=12 2 6 -3 14 22 -2 -5 15 -10 -8 -11 -1 -14 -4 16 -9 -12 21 20 -13 -19 -6 -21
right_child=1 3 4 7 5 -7 10 8 9 11 17 19 13 -15 -16 -17 -18 18 -20 23 -22 -23 -24 -25
leaf_value=-0.0031856808792698312 -0.0044391939723457188 -0.0027663786718550654 0.00064069836464002942 -0.0012056814665140749 0.0033010682134333256 0.012323758551523921 -0.00089012487779855309 0.0026293698002378255 -0.00075071710292841029 0.023059811838196987 0.00096116582876685282 0.009480043201523165 -0.0020705274287482161 0.00061920214272378907 0.0076571561589126331 -0.00135494951941047 -0.00098493007773758781 0.004169093018611532 -0.0010975412587087487 0.0050494222633134089 0.0041148913783800572 0.011446515175824365 0.0082531913218595286 4.2573456267607952e-05
leaf_count=7378 1054 5402 1459 8794 1126 1321 1918 3501 1611 66 906 789 6631 4095 494 5849 2511 538 261 961 2272 624 1343 1452
internal_value=0 0.015682 0.0713182 -0.00282097 0.124667 0.164014 0.0135212 0.00737973 0.021947 0.0616855 0.0389107 0.0839893 -0.0383318 -0.0208727 0.0483094 -0.00201136 0.0223961 0.0856158 0.127887 0.0794414 0.109956 0.161542 0.119895 0.040732
internal_count=62356 44252 11044 33208 5743 3790 5301 27806 19012 7151 4247 5540 18104 10726 1953 11861 6012 2329 1423 5474 3061 1162 2469 2413
shrinkage=0.05


Tree=22
num_leaves=25
num_cat=0
split_feature=84 16 33 82 48 16 65 33 41 33 27 31 15 95 26 7 84 82 41 23 33 84 16 66
split_gain=38.5252 62.8799 30.3306 22.2736 19.0044 13.2749 10.3181 10.8932 10.4202 10.4002 10.2234 9.91559 9.50426 9.44694 9.68366 11.6361 9.23901 8.36873 7.87209 6.7063 6.57302 6.13152 9.17279 6.00716
threshold=-0.0025841499999999995 -0.027688529999999996 -0.036578674999999998 -0.013952059999999999 -0.26595778499999995 0.016203285000000001 -0.0072279699999999994 0.17583461000000003 -0.018408954999999998 0.0077321400000000011 0.69223028500000006 0.054507520000000011 -0.040197034999999992 0.040849090000000012 0.064826675000000014 1.3884056200000001 -0.034242694999999997 -0.0042757299999999993 -0.017313679999999994 -0.055935149999999989 -0.086950334999999976 -0.066852269999999978 -0.073448674999999977 0.0030283100000000006
decision_type=2 2 2 2 2 2 2 2 2 2 2 2 2 2 2 2 2 2 2 2 2 2 2 2
left_child=1 10 -3 -4 -5 16 9 8 17 -2 11 13 -7 21 15 20 19 -8 -18 -6 -15 22 -1 -22
right_child=6 2 3 4 5 12 7 -9 -10 -11 -12 -13 -14 14 -16 -17 18 -19 -20 -21 23 -23 -24 -25
leaf_value=-0.00059558445603552534 -0.0046114571593352301 9.7887027561463819e-06 0.0012550735813052147 -0.0026660735601717941 0.0023350979742263597 0.0038094763075597251 -0.00010641873256212219 -0.0041451066712234431 -0.001781113314713237 -0.00095183134819999942 -0.0025354913430420214 -0.0032371692074996449 0.011808076327782998 -0.00077086396971329425 -0.00018424780532122281 0.021974559221416713 0.0083228863388869392 0.0042333473552178171 0.00068519681286916771 0.010765380585170327 0.00022982362252012877 -0.0026041926746672092 0.0048897684438627929 0.0040364167730886488
leaf_count=7017 4972 3375 2136 452 310 444 2986 2083 4878 3185 4476 2113 2271 1389 6332 76 489 1769 1088 987 1385 3170 855 4118
internal_value=0 0.0170003 0.0799533 0.112873 0.143907 0.159858 -0.036342 -0.0173293 -0.0031501 -0.0636502 -0.00651114 0.000966967 0.21 0.00667093 0.024621 0.0503433 0.112489 0.030162 0.0610702 0.175009 0.0460521 -0.0149497 3.90216e-06 0.0615674
internal_count=62356 42483 11552 8177 6041 5589 19873 11716 9633 8157 30931 26455 2715 24342 13300 6968 2874 4755 1577 1297 6892 11042 7872 5503
shrinkage=0.05


Tree=23
num_leaves=25
num_cat=0
split_feature=84 41 28 55 20 82 26 29 82 33 86 65 33 14 33 78 78 84 55 84 82 55 86 20
split_gain=34.769 55.2391 26.4772 28.0175 17.893 10.658 11.3663 10.2896 10.1558 10.154 10.0905 9.31211 9.8311 10.9326 9.38622 9.17631 8.14783 7.23247 7.92926 6.0139 5.75601 5.41292 5.18595 5.0743
threshold=-0.0025841499999999995 0.031449460000000005 -0.079322424999999988 -0.0099153099999999984 -0.017675584999999997 0.020603840000000002 0.096824010000000002 -0.048222704999999991 0.010230940000000003 -0.086950334999999976 0.0087396800000000014 -0.0072279699999999994 0.17583461000000003 -0.024718504999999998 0.0077321400000000011 0.010432300000000002 -0.028847039999999997 -0.074109229999999984 0.086822120000000017 -0.16363447499999997 -0.042321334999999995 -0.025643375 0.0021471700000000003 -0.13219961499999996
decision_type=2 2 2 2 2 2 2 2 2 2 2 2 2 2 2 2 2 2 2 2 2 2 2 2
left_child=1 2 -1 4 7 -3 9 -4 -5 -7 -6 14 13 -13 -2 17 -9 18 23 -20 -12 -15 -10 -11
right_child=11 5 3 8 10 6 -8 16 22 15 20 12 -14 21 -16 -17 -18 -19 19 -21 -22 -23 -24 -25
leaf_value=-0.0027376333758530927 -0.0043808843025485511 -0.0016474939723583181 -0.0034253651519216832 -0.00048415841089328077 0.0065336539791226228 -0.00098725154973805323 -0.001341345292285552 0.0095459854619787676 0.0021754747701263973 0.002026734690132695 0.0025578413648196519 0.0023285869862460827 -0.003937851333306844 0.00087083680255412911 -0.00090423977735534236 0.000354293334322259 0.0016821854720761775 0.00073902890598954215 0.0049732006199843318 5.2116542054624311e-05 0.012614010798536999 -0.0022429881285061914 0.0070258688254693363 0.010235618380437772
leaf_count=1387 4972 9935 470 2411 1970 3994 6783 593 1338 246 156 3044 2083 2007 3185 4651 741 1769 1703 977 1620 4582 937 802
internal_value=0 0.0161503 0.0749066 0.0924757 0.140549 -0.00597945 0.00682586 0.0587289 0.0355387 0.0229669 0.179952 -0.0345249 -0.0164628 -0.00299259 -0.0604677 0.0397773 0.103557 0.0674374 0.0924239 0.0635842 0.234614 -0.0258904 0.083464 0.166174
internal_count=62356 42483 11623 10236 5550 30860 20925 1804 4686 14142 3746 19873 11716 9633 8157 10148 1334 5497 3728 2680 1776 6589 2275 1048
shrinkage=0.05


Tree=24
num_leaves=25
num_cat=0
split_feature=55 55 29 16 10 14 64 55 57 41 26 10 16 64 28 29 92 71 10 29 55 47 33 55
split_gain=29.7461 36.0332 23.9881 21.5447 19.6859 16.1081 13.8257 11.4114 10.7066 10.385 9.2924 8.20508 8.62737 8.20465 7.42613 6.76416 7.41513 9.58903 6.69288 5.88354 6.09231 5.7829 5.54005 5.22479
threshold=-0.0044804850000000002 -0.23369856999999997 -0.022350944999999997 -0.016038444999999998 0.019700475000000002 -0.023872454999999997 1.0000000180025095e-35 0.032867590000000009 -0.11527841999999998 -0.018408954999999998 0.096824010000000002 -0.0055363799999999996 -0.18639189499999997 -0.015529774999999997 -0.024307819999999997 0.11703134000000001 -0.57004358999999993 -0.35787413999999995 -0.044629584999999992 -0.042997049999999988 -0.030902219999999998 0.38099212500000007 -0.021312204999999997 0.18047843000000002
decision_type=2 2 2 2 2 2 2 2 2 2 2 2 2 2 2 2 2 2 2 2 2 2 2 2
left_child=1 -1 9 11 -2 14 18 13 10 19 15 -4 -13 -6 -5 -9 -17 21 -7 -3 -21 -18 -19 -24
right_child=4 2 3 5 7 6 -8 8 -10 -11 -12 12 -14 -15 -16 16 17 22 -20 20 -22 -23 23 -25
leaf_value=-0.0028574662141624602 -0.0027642909499604965 0.00058509952707389457 -0.0023035855928078218 0.005896365994482399 0.0057140581617928943 0.0018237904687383691 0.0006485347126308625 -0.00098250848701673921 -0.0019673525191077576 -0.0019352873722725335 -0.0013004100493389512 -0.0020388959725853215 0.0042179131970729094 0.00082382945636101299 0.011979521303329358 -0.0022167816662607897 0.0031651371927224458 0.00075472890222659278 0.0085413995977998581 0.0087500378093828268 0.0015756976453595269 0.022782995834360633 0.0063338872890059865 0.0021373742153829229
leaf_count=3705 9425 2218 1094 821 1233 492 1600 3379 8873 2981 7324 721 2336 2818 1290 1106 65 4554 1505 558 630 89 1058 2481
internal_value=0 0.0318421 0.0521372 0.0830655 -0.0149813 0.12293 0.0822339 -0.0034631 -0.0104239 0.00439602 0.00237203 0.028248 0.0548446 0.0462453 0.192274 0.0186976 0.0325516 0.0428629 0.137728 0.0421196 0.0989093 0.290055 0.0381592 0.0678388
internal_count=62356 19951 16246 9859 42405 5708 3597 32980 28929 6387 20056 4151 3057 4051 2111 12732 9353 8247 1997 3406 1188 154 8093 3539
shrinkage=0.05


Tree=25
num_leaves=25
num_cat=0
split_feature=84 41 21 33 78 63 27 97 48 21 95 21 33 84 63 75 33 34 63 83 64 91 21 39
split_gain=30.3237 47.4389 23.6846 17.0711 13.8846 11.5557 10.3385 9.23319 9.13657 8.28508 8.2015 10.689 7.61078 8.67293 6.31162 7.50941 7.14598 7.13008 6.27008 6.18981 5.99857 5.86479 5.74351 5.73339
threshold=-0.0025841499999999995 0.013396220000000002 -0.052207904999999992 0.0038705600000000003 0.022783205000000004 0.010651125000000003 0.69223028500000006 -0.016920129999999995 -0.54351851499999981 -0.066696539999999985 0.032559500000000012 -0.058769694999999997 0.023243485000000005 0.056731780000000002 0.022376385000000002 -1.00602478 -0.10755862999999999 0.45414431500000008 -0.026097694999999994 -0.0049220699999999989 -0.039092309999999998 -0.005412634999999999 0.023831990000000001 -0.038103454999999987
decision_type=2 2 2 2 2 2 2 2 2 2 2 2 2 2 2 2 2 2 2 2 2 2 2 2
left_child=1 2 -1 5 8 -4 10 9 -5 -2 22 19 -11 18 15 17 -16 -13 -14 20 -12 -7 -3 -9
right_child=7 6 3 4 -6 21 -8 23 -10 12 11 14 13 -15 16 -17 -18 -19 -20 -21 -22 -23 -24 -25
leaf_value=-0.0017461115537194536 -0.0041267329614582812 -0.0017462861558637294 -0.00025639024648955642 -0.0058179289142468145 0.0022961473374359461 0.0011828882526494385 -0.0023112749517671719 -0.00042557608474484986 0.0091725910020919368 -0.00084528293097989543 0.0030771409332097412 0.022246346643771092 0.0021821668259205495 -0.0012750837189888569 -0.00065881592393223648 0.0011970296859143718 0.0066848022314625532 0.001583185274026312 0.0087155843747260993 -0.0029526475527595496 -0.00039769245712596609 0.0076688308458917193 0.00034976144598250481 -0.0030028859239101886
leaf_count=1566 1135 6541 1905 105 1143 520 4706 2768 3182 3848 1658 84 831 844 433 4962 1410 83 658 1646 4950 1057 6532 9789
internal_value=0 0.0150826 0.0774404 0.0996801 0.140861 0.0472868 -0.00282463 -0.0322424 0.173875 -0.00400335 0.00439274 0.0201672 0.0104171 0.0554828 0.0489962 0.0309603 0.0991894 0.239533 0.101387 -0.004184 0.00948342 0.110603 -0.0139797 -0.0486951
internal_count=62356 42483 9478 7912 4430 3482 33005 19873 3287 7316 28299 15226 6181 2333 6972 5129 1843 167 1489 8254 6608 1577 13073 12557
shrinkage=0.05


Tree=26
num_leaves=25
num_cat=0
split_feature=82 21 95 16 50 33 21 82 77 20 33 26 22 16 33 84 17 7 37 95 16 84 33 78
split_gain=28.0492 34.0635 31.0124 22.9772 17.7816 13.5833 12.5936 9.93461 9.77032 8.58068 8.20531 8.70881 7.87916 6.64319 6.00546 5.79634 5.76557 6.59447 5.67688 5.5513 7.37953 6.12286 5.45087 5.30821
threshold=-0.0013873499999999999 -0.033157869999999999 -0.021860804999999997 -0.027688529999999996 -0.0045770999999999997 0.012275850000000001 0.0042128600000000014 -0.039503939999999994 -0.10281897 -0.030214599999999998 -0.0024539799999999997 0.017953765000000003 0.00074304500000000012 0.013919805000000002 -0.019575274999999996 -0.018721434999999998 -0.68155148499999985 0.79527449500000014 -0.19786632499999998 0.046238475000000008 -0.18280423999999998 -0.11485298499999999 0.015456955000000001 0.0063327250000000017
decision_type=2 2 2 2 2 2 2 2 2 2 2 2 2 2 2 2 2 2 2 2 2 2 2 2
left_child=5 8 10 14 22 -1 -7 -8 19 -6 -3 13 -9 -12 -4 18 -16 -18 -15 -2 -21 -22 -5 -14
right_child=1 2 3 4 9 6 7 12 -10 -11 11 -13 23 15 16 -17 17 -19 -20 20 21 -23 -24 -25
leaf_value=-0.0024582571499424453 -0.0016254660897772545 -0.0015112313316457957 0.00016928424271074231 0.00081689224438978841 0.0050264777502735331 -0.0022282945880620869 -0.00034666800307006434 0.0012352259348743469 -0.0028159340160477169 0.010524034738067768 0.0015624462801041531 -0.0014392302886713339 0.0097897622921817428 -0.0045337123065894731 -0.0016460381210624082 0.0027417696255285021 0.0035883273282174542 0.017302993972682292 0.013237722829016908 -0.00050610732956827176 0.0056675436635075802 0.0010823341875534716 0.006361090670073722 0.0031699928801509946
leaf_count=12837 4176 4595 2779 1326 1065 4090 3843 1567 4312 2128 1580 1454 629 51 532 397 3356 90 378 6212 995 2714 666 584
internal_value=0 0.0165222 0.0446688 0.0774786 0.127553 -0.0272255 -0.000935937 0.0260075 -0.0146641 0.173807 -0.00167229 0.0323168 0.0715441 0.0692418 0.0390542 0.141916 0.0639719 0.0789303 0.222501 -0.00192271 0.010952 0.0462478 0.0534105 0.132053
internal_count=62356 38806 20397 11942 5185 23550 10713 6623 18409 3193 8455 3860 2780 2406 6757 826 3978 3446 429 14097 9921 3709 1992 1213
shrinkage=0.05


Tree=27
num_leaves=25
num_cat=0
split_feature=79 78 85 33 26 29 29 95 79 16 78 16 10 64 95 26 85 7 79 87 16 79 83 74
split_gain=28.4922 30.5349 26.4656 18.2919 21.8968 11.4791 11.4546 11.2517 9.8326 10.9631 9.75304 8.21856 7.8773 7.81116 7.23361 7.15295 5.63329 5.89925 5.58794 5.30105 5.16268 5.01186 4.43977 4.43885
threshold=0.0053375300000000009 0.026000160000000005 0.19635672500000004 0.0046368450000000014 0.031251100000000011 -0.034809399999999997 -0.018655399999999999 -0.0070669999999999995 -0.14909318499999999 0.013919805000000002 -0.044829824999999997 0.031144370000000005 -0.013422259999999997 -0.018246929999999998 -0.49154646499999993 -0.021363679999999996 -0.057821754999999996 0.96612388000000016 0.037644960000000012 -0.037821164999999997 0.043989720000000003 0.40166092000000003 0.063071180000000018 -0.036524754999999999
decision_type=2 2 2 2 2 2 2 2 2 2 2 2 2 2 2 2 2 2 2 2 2 2 2 2
left_child=7 2 3 6 5 -5 -2 20 -9 10 -10 12 -7 15 -3 -8 17 -16 -15 -12 23 -4 -17 -1
right_child=1 14 21 4 -6 11 13 8 9 -11 19 -13 -14 18 16 22 -18 -19 -20 -21 -22 -23 -24 -25
leaf_value=-0.001343495209469984 -0.0017723478045237027 -0.0038628394258029917 -3.3859746996695303e-05 0.0020003432951374296 0.0008908222558619062 0.001853318526132201 0.010376735918290749 -0.0020347774503757556 0.0014541975855148293 0.0033205425212133374 0.0039050555776312204 0.01233321237490137 0.0082760346899157719 -0.00048569229207930944 0.00087253415569716285 0.0048420817535943413 -0.00090559183652518514 0.0085909119955397701 0.0035924773978170421 -0.0017884311497316778 -0.00075101680441356383 -0.0039686015395899183 -0.0033595912079617848 -0.0041721887193069468
leaf_count=2000 1799 1585 2743 891 1986 596 543 6716 4667 2460 434 951 2399 1741 2979 943 9268 270 1623 7050 2840 1148 200 4524
internal_value=0 0.0210446 0.0488705 0.0695793 0.106226 0.142526 0.0330713 -0.0217124 -0.00902512 0.00553231 -0.0067927 0.165675 0.139958 0.0574801 -0.0136106 0.113034 -0.00555117 0.030279 0.0296373 -0.0291653 -0.0506084 -0.0238953 0.0681394 -0.0661005
internal_count=62356 31665 17563 13672 6823 4837 6849 30691 21327 14611 12151 3946 2995 5050 14102 1686 12517 3249 3364 7484 9364 3891 1143 6524
shrinkage=0.05


Tree=28
num_leaves=25
num_cat=0
split_feature=79 70 55 67 50 29 83 64 29 95 79 66 62 9 55 55 14 97 89 95 55 13 66 21
split_gain=25.7142 28.6976 19.1493 18.2725 11.9275 10.6648 11.8855 10.4684 9.74078 8.22601 8.15245 7.86854 6.13353 5.98796 5.65951 5.4979 4.92717 4.72879 6.69076 5.89129 4.48807 4.94805 4.33796 4.18518
threshold=0.0053375300000000009 -0.026951164999999996 -0.027611474999999996 -0.10607795499999999 -0.0058239249999999989 -0.0095196799999999974 0.020753180000000006 0.0054734700000000011 -0.020467194999999997 0.024885340000000002 -0.070360924999999977 -0.015156339999999999 -0.0091195899999999986 -0.037746499999999995 0.23724258500000003 0.031503570000000009 -0.20290538499999997 -0.01928214 0.30888356500000008 0.048933250000000005 0.00093706500000000006 0.024801075000000002 0.08814778500000002 -0.14656917999999999
decision_type=2 2 2 2 2 2 2 2 2 2 2 2 2 2 2 2 2 2 2 2 2 2 2 2
left_child=7 5 3 -3 -5 -2 14 9 -4 20 22 -10 -13 -6 -7 -12 -16 18 -9 -19 21 -1 -11 -8
right_child=1 2 8 4 13 6 23 17 11 10 15 12 -14 -15 16 -17 -18 19 -20 -21 -22 -23 -24 -25
leaf_value=0.0016128920949244315 -0.0021717282183215231 -0.0027712227231711088 -0.0017189641898662689 0.003351130289078014 0.0029659903196789048 0.0028600546172455627 -0.0034765676968953915 -0.00040331558863186066 -0.00041081475509793059 -0.0019190640407923854 0.0053794668558593238 0.0021977467938633652 0.0067785941395011587 0.0099345488093031467 0.0047065215158472043 0.0012433996393830266 -0.00013250006228006497 -0.0036731150748349154 -0.0043803442375317907 -0.0012109632019834406 -0.0028802612989163173 -0.0032670174778743123 0.0015622158194633006 -0.00045191127552909085
leaf_count=1695 4793 583 1898 1606 362 4674 1528 7817 1511 2024 1436 1859 1204 2077 597 1824 4426 5225 1223 4541 2553 749 1604 4547
internal_value=0 0.0199923 0.0609689 0.110087 0.133941 -0.00212486 0.0104289 -0.0206268 0.0258458 0.00260502 0.025013 0.0508365 0.0799676 0.178005 0.0321568 0.061306 0.00885267 -0.0353088 -0.0188272 -0.0505652 -0.0282828 0.00234743 -0.00759863 -0.0242536
internal_count=62356 31665 11100 4628 4045 20565 15772 30691 6472 11885 6888 4574 3063 2439 9697 3260 5023 18806 9040 9766 4997 2444 3628 6075
shrinkage=0.05


Tree=29
num_leaves=25
num_cat=0
split_feature=84 16 33 82 29 16 41 66 84 98 16 84 20 48 33 78 41 41 82 86 34 98 10 83
split_gain=24.6329 43.8144 21.4836 17.6124 14.2832 12.0186 9.08753 10.3245 8.77392 7.96987 7.53457 11.287 7.33684 7.25731 6.64191 6.6846 6.58002 6.51086 5.93927 5.9831 5.83723 5.71985 5.66049 5.17913
threshold=-0.0078390549999999993 -0.050940669999999993 -0.030178989999999996 -0.018602549999999995 -0.072159544999999992 0.016203285000000001 -0.018408954999999998 -0.19837008499999995 -0.068554214999999988 -0.057214004999999991 -0.26921802999999994 -0.13298854999999996 0.012846380000000003 -0.21729510499999996 -0.10755862999999999 -0.0071666849999999999 0.04388731500000001 -0.024865234999999996 -0.017792249999999999 0.021724395000000004 -0.020998644999999996 0.0085588000000000018 -0.0023254549999999993 -0.30219146499999994
decision_type=2 2 2 2 2 2 2 2 2 2 2 2 2 2 2 2 2 2 2 2 2 2 2 2
left_child=1 9 21 -4 -5 8 7 -2 -6 10 -1 14 20 -7 -12 -16 -13 -10 -14 -20 -9 23 -8 -3
right_child=6 2 3 4 5 13 22 12 17 -11 11 16 18 -15 15 -17 -18 -19 19 -21 -22 -23 -24 -25
leaf_value=-0.00074374729572144397 -0.00330715566739737 -0.0027131210422633631 0.00036927265386190773 -0.0020309900648912585 0.0091045025926578798 -0.0020294553112657067 -0.003483737762398788 0.0016084858122624203 0.0078883807769958188 -0.0016567855016341951 -0.00039164067136429999 0.0047516381831852039 -3.4157505656612809e-06 0.0097666353848579381 0.0062165943927668978 0.0017160042312046265 -0.0012137110087751474 0.0020538737084834064 0.0026652827816056129 0.0094282793606825684 -0.0030636789492782777 -0.0019570291109664538 -0.0013341569965494274 0.0028753575365963362
leaf_count=10433 1994 520 1955 541 844 138 5295 1117 608 8672 1066 523 1776 2364 1792 1529 3981 2239 1834 398 1665 1763 7264 2045
internal_value=0 0.0143379 0.0622715 0.0909435 0.115202 0.128814 -0.0275519 -0.00287864 0.0925438 -0.00794929 0.00335358 0.0247435 0.0157001 0.18232 0.0608453 0.0828901 -0.0104204 0.0659976 0.0430864 0.0774246 -0.0237552 0.00470906 -0.0448088 0.0348482
internal_count=62356 41013 13017 8689 6734 6193 21343 8784 3691 27996 19324 8891 6790 2502 4387 3321 4504 2847 4008 2232 2782 4328 12559 2565
shrinkage=0.05


Tree=30
num_leaves=25
num_cat=0
split_feature=79 78 81 50 10 64 58 84 81 81 64 95 21 21 95 79 31 64 30 70 78 31 97 28
split_gain=22.3561 24.9516 23.026 16.0726 16.698 9.57329 8.06765 7.75789 7.94388 7.70225 6.94267 6.07479 6.17837 5.76833 5.73131 5.71845 5.45636 5.20931 4.63062 10.7277 5.06103 4.73879 4.49738 6.55882
threshold=0.0060602150000000016 0.026000160000000005 -0.016284124999999997 -0.0032804599999999994 -0.099024184999999987 0.0054734700000000011 0.0034939300000000006 -0.0042947849999999997 -0.0021952099999999995 -0.27048815499999995 -0.017384274999999998 -0.53203457999999992 0.048261865000000008 -0.044507764999999991 -0.034923539999999996 0.04850433500000001 0.046690615000000012 -0.0088990799999999984 0.20419746500000005 -0.74679162999999993 0.073755460000000009 -0.72476794999999983 -0.01928214 -0.23178621999999996
decision_type=2 2 2 2 2 2 2 2 2 2 2 2 2 2 2 2 2 2 2 2 2 2 2 2
left_child=5 2 6 17 -5 7 9 8 -1 -2 13 -3 -13 -6 -12 -11 -10 -4 20 -20 -14 -21 23 -7
right_child=1 11 3 4 10 22 -8 -9 16 15 14 12 18 -15 -16 -17 -18 -19 19 21 -22 -23 -24 -25
leaf_value=-0.00035066507268949852 -0.0010434271365073152 -0.0036618225945325537 0.0047250681816218823 -0.0045410410368321016 0.002987726639831133 -0.0038811335605312652 -0.0013528787594540932 -0.0015085514605333945 0.0037960967416039945 0.00072584860313340939 0.00078337231004973725 -0.0013340777061701364 0.0024018333376024411 0.011010088125323324 0.0067649333855807183 0.0042736519715891371 -0.0015616961513153097 0.00028602809899096513 -0.0012654291023137176 0.013675421780159062 -0.00092904240057054314 0.0042695418905297463 -0.0023939937236467233 -0.00025584986302891206
leaf_count=4134 1880 1475 940 328 268 1493 3385 4438 2857 1990 514 6548 1764 1367 1813 2646 570 2226 513 261 3226 275 9854 7591
internal_value=0 0.0187889 0.0441541 0.086126 0.126012 -0.0190816 0.012547 0.00301805 0.0224987 0.0331212 0.143963 -0.0125199 -0.00540487 0.193902 0.108874 0.0550152 0.0580991 0.03208 0.0176651 0.0780599 0.00496891 0.176993 -0.0330839 -0.0170337
internal_count=62356 31419 17357 7456 4290 30937 9901 11999 7561 6516 3962 14062 12587 1635 2327 4636 3427 3166 6039 1049 4990 536 18938 9084
shrinkage=0.05


Tree=31
num_leaves=25
num_cat=0
split_feature=82 26 33 74 55 33 86 74 26 66 49 64 20 99 82 82 39 55 29 64 82 96 74 81
split_gain=21.7492 26.7004 23.2009 21.1818 16.137 11.1545 10.0756 8.30173 9.20235 7.88021 7.19986 6.79831 7.38167 6.72021 6.51189 5.82504 5.64203 5.57611 5.06292 5.04865 4.9944 4.62152 4.52239 4.40612
threshold=-0.0013873499999999999 0.042917810000000008 -0.019575274999999996 0.096666500000000016 -0.027611474999999996 0.024932190000000003 0.0071686250000000014 0.054494525000000009 0.017306220000000004 0.0023318050000000006 -0.36069985999999993 -0.018246929999999998 -0.094719244999999994 0.094705895000000026 0.049507420000000003 -0.039503939999999994 0.011146005000000002 -0.036892659999999994 0.0010011900000000001 -0.027243284999999996 0.099913900000000014 -0.065547999999999981 0.030351260000000005 0.00076370500000000005
decision_type=2 2 2 2 2 2 2 2 2 2 2 2 2 2 2 2 2 2 2 2 2 2 2 2
left_child=5 2 11 4 10 19 -6 8 15 -8 -4 12 -2 20 -13 -7 -11 -17 -12 -1 -3 -10 -20 -14
right_child=1 13 3 -5 6 7 9 -9 21 16 18 14 23 -15 -16 17 -18 -19 22 -21 -22 -23 -24 -25
leaf_value=-0.00014967142300761297 -0.00096465398503742163 -0.001237533200022835 -0.0035845675309466615 -0.0023550167427886341 0.0011675438410512103 0.00086995827555016916 0.0016467677961914411 -0.0019343899339831765 0.0022800142453256542 0.0084704416270325999 0.0058479527271780973 -0.0023013183378303085 0.0018422785146423254 -0.0028785442500687992 0.00071340669166309852 0.0098752221211260011 0.0037876150805670988 0.003373465133031388 0.01167778219782274 -0.0025257390117924654 0.00079785484014366402 -0.0020016645692784029 0.0041691580043715457 0.0066126791433610624
leaf_count=2769 1323 6816 149 1501 4333 1444 1414 3115 899 1381 1606 3627 1146 3306 3539 463 1204 1146 967 11606 5403 2108 253 838
internal_value=0 0.0145488 0.0359691 0.0645152 0.0793321 -0.0239738 0.0567582 0.00326766 0.0248339 0.0929557 0.142554 0.00105854 0.0385633 -0.0175725 -0.0162493 0.0635076 0.125787 0.104888 0.15385 -0.0413609 -0.0067505 -0.0144315 0.202413 0.0771439
internal_count=62356 38806 23281 12808 11307 23550 8332 9175 6060 3999 2975 10473 3307 15525 7166 3053 2585 1609 2826 14375 12219 3007 1220 1984
shrinkage=0.05


Tree=32
num_leaves=25
num_cat=0
split_feature=82 55 86 14 55 51 98 30 50 82 8 50 62 51 60 39 13 55 86 14 82 55 60 95
split_gain=19.6287 20.9679 26.6223 13.1514 10.5027 11.2352 8.59615 9.05693 8.49716 8.35697 8.22568 8.08681 7.33871 7.31727 7.16784 6.78315 6.57988 6.56901 7.90817 5.88138 4.92951 4.44055 4.39518 4.12823
threshold=-0.0013873499999999999 0.025254700000000005 -0.012289714999999998 -0.011309504999999999 -0.027611474999999996 0.3173386150000001 -0.070311234999999986 0.48044513000000005 -0.0098375399999999971 0.26679422000000008 0.29477454500000005 0.0012169350000000002 0.019121675000000001 -0.10378044999999998 -0.020440129999999997 -0.0090599949999999978 0.017957735000000002 0.23724258500000003 0.0071686250000000014 0.058825295000000007 0.081630565000000016 -0.03552745999999999 0.059230670000000006 -0.031693669999999993
decision_type=2 2 2 2 2 2 2 2 2 2 2 2 2 2 2 2 2 2 2 2 2 2 2 2
left_child=4 2 9 10 5 16 17 -8 -5 15 11 21 -6 -9 -10 22 -1 18 -3 -20 -21 -4 -2 -17
right_child=1 6 3 8 12 -7 7 13 14 -11 -12 -13 -14 -15 -16 23 -18 -19 19 20 -22 -23 -24 -25
leaf_value=0.0037077646769080163 0.003546784724802405 9.786200704809852e-05 0.0087267706863453243 -0.0014681937916711761 -0.0028584584735127307 -0.0036779941900394533 -0.0017795434767385735 0.015711556501200371 0.007443908888539433 -0.0034515508472151069 -0.001533676216301631 0.009778174044018784 -0.00079716442409591458 -0.0016762537074300949 0.0019754362140486587 -0.0033771985004960956 5.7720698176274948e-05 -0.00053982922817004419 0.0055803607532068167 -0.0006713971697863664 0.0046008463105231927 0.00269115003263055 -0.001898895125925439 0.0004798559633875201
leaf_count=2213 2405 4351 448 1048 8191 1221 8239 136 911 1339 280 1662 9132 109 1751 959 2793 7858 1556 1122 733 953 438 2508
internal_value=0 0.0138214 0.043585 0.0878998 -0.0227751 0.0124479 -0.00433258 -0.0299566 0.0469096 0.00272302 0.13339 0.148388 -0.0354365 0.159515 0.0769376 0.0179494 0.0334259 0.00958511 0.0302189 0.0662689 0.0282384 0.0924234 0.0541562 -0.0117407
internal_count=62356 38806 14702 7053 23550 6227 24104 8484 3710 7649 3343 3063 17323 245 2662 6310 5006 15620 7762 3411 1855 1401 2843 3467
shrinkage=0.05


Tree=33
num_leaves=25
num_cat=0
split_feature=88 55 55 95 16 29 29 21 14 16 82 86 39 88 81 33 89 58 14 81 47 82 89 21
split_gain=19.793 20.0808 17.3334 11.8219 11.5007 11.8263 10.4984 13.1106 9.23447 7.47061 11.8132 8.73693 6.30753 6.52701 5.74508 5.34806 5.32292 6.75784 4.77083 4.55559 4.50301 4.38207 4.38907 4.06755
threshold=-0.017441164999999998 -0.027611474999999996 -0.14200089499999999 -0.021860804999999997 -0.026440314999999995 -0.026287734999999996 -0.011319159999999998 -0.14656917999999999 0.0079930400000000016 -0.083503434999999987 0.01089993 -0.014672589999999998 -0.013814674999999997 -0.051924624999999995 -0.023530134999999997 0.0084701400000000027 -0.84978228499999997 -0.33034034499999992 -0.012139349999999998 0.010364010000000002 0.045330785000000005 0.039223830000000008 -0.24924453999999999 0.024825570000000002
decision_type=2 2 2 2 2 2 2 2 2 2 2 2 2 2 2 2 2 2 2 2 2 2 2 2
left_child=3 2 -2 -1 -4 -6 15 -8 9 20 23 -12 13 -5 -15 -3 17 -14 19 -7 -9 -10 -23 -11
right_child=1 6 4 12 5 18 7 8 21 10 11 -13 16 14 -16 -17 -18 -19 -20 -21 -22 22 -24 -25
leaf_value=-0.0026848955885527851 -0.00079481464458870199 -0.0031050847283947726 0.00091877450298886965 -0.00014234217704691104 0.002410439509381915 0.0070476833522003686 -0.0022825169388341316 -0.002977700365502912 -0.0012442192010695917 -0.00046176946304408295 0.0026533276131668511 0.0087293531657838038 0.015312675196888312 -0.00015971085735933059 0.0051475766313335246 -0.00032122049590882772 -0.0014791184878600739 0.00030865125118422772 0.0053733394745954935 0.012570094022197179 0.0015185464502993013 -0.00054585287008807103 0.0028367342236239124 0.0040191593751596954
leaf_count=7613 2128 3016 1590 7587 1479 738 3077 637 3804 1451 1029 1392 106 857 1259 4031 9514 257 995 756 4426 1912 1924 778
internal_value=0 0.0156676 0.0608514 -0.0202596 0.0902359 0.119031 0.00302858 0.0145087 0.0251759 0.0456351 0.0745738 0.122937 -0.00725831 0.0108502 0.0599615 -0.0302534 -0.0250478 0.0937998 0.161114 0.196843 0.019057 -0.000834565 0.0230146 0.0220447
internal_count=62356 35163 7686 27193 5558 3968 27477 20430 17353 9713 4650 2421 19580 9703 2116 7047 9877 363 2489 1494 5063 7640 3836 2229
shrinkage=0.05


Tree=34
num_leaves=25
num_cat=0
split_feature=84 55 52 79 70 10 27 84 9 7 98 55 84 95 5 55 50 79 81 84 43 13 87 52
split_gain=18.4954 26.4567 28.9374 12.4239 9.61851 8.33751 7.12363 6.20996 6.03304 5.82912 5.73067 6.56948 9.00893 5.53179 6.26181 5.52363 5.39934 7.97288 5.56783 5.37877 6.18231 5.28496 7.36315 5.01934
threshold=-0.0078390549999999993 0.032867590000000009 -0.24619310999999997 0.010620820000000001 -0.011008189999999999 0.095615100000000008 0.69223028500000006 -0.036527404999999992 -0.021012369999999999 1.4955862200000001 -0.070311234999999986 0.13817774500000005 -0.22482474999999996 -0.010633329999999998 0.036686565000000011 0.23724258500000003 0.00184033 -0.17394061999999996 0.0014246700000000001 -0.052747779999999987 -0.29403623999999995 -0.021240844999999998 0.0078027800000000013 0.053877925000000007
decision_type=2 2 2 2 2 2 2 2 2 2 2 2 2 2 2 2 2 2 2 2 2 2 2 2
left_child=1 2 -1 16 19 -3 9 -6 -9 10 11 -7 15 23 21 -13 -4 -18 -19 20 -5 22 -15 -2
right_child=13 5 3 4 7 6 -8 8 -10 -11 -12 12 -14 14 -16 -17 17 18 -20 -21 -22 -23 -24 -25
leaf_value=-0.0028096407498182951 -0.002715445246910083 -0.0023895542762790547 -0.0004469950905565275 -0.002108342523819634 0.0083368624104831011 0.0031461161373413462 -0.0017660831311268903 -0.0018580777533097608 0.0057005661996506708 0.0145970392965852 -0.00088893688686132516 0.00471150998785436 -0.001349528013274708 0.0066981192360326949 -0.0019492784229871011 0.00087513169345752179 -0.0012466801634988221 0.0013959452456341146 0.0058314426757434335 0.00024858107004812881 0.0061107806952550737 -0.00039946231274109388 0.00041090698907976519 -0.00012824539199164355
leaf_count=2325 7389 4148 2071 280 2008 2855 4324 329 1336 73 5566 1233 4092 716 4311 3925 957 1200 1724 1316 1251 5083 1332 2512
internal_value=0 0.012424 0.0462307 0.0653242 0.0954799 -0.00665744 0.00107422 0.129295 0.0841399 0.00994346 0.00877851 0.0209898 0.00804738 -0.0238741 -0.00889814 0.0358441 0.0322908 0.0542925 0.0802226 0.0518538 0.0921522 0.00929102 0.0521795 -0.0411808
internal_count=62356 41013 14797 12472 6520 26216 22068 3673 1665 17744 17671 12105 9250 21343 11442 5158 5952 3881 2924 2847 1531 7131 2048 9901
shrinkage=0.05


Tree=35
num_leaves=25
num_cat=0
split_feature=88 63 14 95 56 86 39 66 95 82 58 74 14 64 14 73 82 41 82 41 64 70 9 31
split_gain=17.146 14.559 19.7907 10.1303 8.66156 10.6081 8.36793 7.615 7.44433 6.67877 6.55663 6.63379 6.51327 6.88099 5.99726 5.77005 5.29864 5.25961 4.885 4.58663 5.0108 4.27984 4.15774 5.12726
threshold=-0.017441164999999998 -0.026097694999999994 -0.011309504999999999 -0.021860804999999997 -0.09324294499999998 0.0071686250000000014 0.0035297600000000003 -0.016068704999999999 -0.010633329999999998 0.025829165000000005 -0.016207669999999997 0.042846445000000004 -0.0097372699999999975 -0.03658562499999999 -0.023872454999999997 0.049429465000000006 -0.014749329999999998 0.61186197500000017 0.0020073700000000001 0.14496582000000002 -0.0080769699999999976 -0.025835339999999995 0.0074113100000000008 0.0022453600000000005
decision_type=2 2 2 2 2 2 2 2 2 2 2 2 2 2 2 2 2 2 2 2 2 2 2 2
left_child=3 10 4 -1 -3 22 18 -5 9 -7 11 14 15 21 -2 17 -10 -9 -4 20 -20 -14 23 -6
right_child=1 2 6 7 5 8 -8 12 16 -11 -12 -13 13 -15 -16 -17 -18 -19 19 -21 -22 -23 -24 -25
leaf_value=-0.0024904926378160209 0.002173839891984569 -0.00040198270841955961 -0.00028312844789073882 -0.0018119462041995633 0.0036384769553371335 0.0013675884577214318 -0.0010747851270043875 0.0037342261738958771 0.0044739452924864786 0.0095354404503210661 -0.0019879880085910246 -0.0014869451610176655 0.00028245046690675372 -0.00078860865365010875 -0.00041219271774002423 -0.0014300449097120679 0.010993913808289433 0.016190896145999431 0.0059040333106551044 0.00066278410885981399 0.0010967014294508048 0.004509657837284047 0.0054619925741971227 -0.0011855727571243526
leaf_count=7613 4924 1025 2072 6071 1203 816 5077 1450 434 361 4349 3828 1307 8988 4116 569 1105 90 1472 1609 858 1105 898 1016
internal_value=0 0.0145824 0.0345129 -0.0188563 0.0767384 0.091636 0.0083961 -0.00682114 0.137321 0.0774553 -0.006192 0.0051529 0.00639934 -0.00304505 0.0199279 0.0574501 0.183105 0.0892443 0.0336433 0.054319 0.0826756 0.0443809 0.0518281 0.0285944
internal_count=62356 35163 17946 27193 6858 5833 11088 19580 2716 1177 17217 12868 13509 11400 9040 2109 1539 1540 6011 3939 2330 2412 3117 2219
shrinkage=0.05


Tree=36
num_leaves=25
num_cat=0
split_feature=21 82 23 82 29 63 21 78 79 9 99 79 20 78 26 64 78 81 79 29 96 64 11 94
split_gain=17.544 17.8304 16.0272 13.4052 11.346 9.757 7.67954 6.28623 6.24132 9.00227 5.77306 5.4707 5.25577 5.18042 5.4267 4.60514 4.37751 4.06687 4.86896 4.0506 3.85913 4.66694 3.71385 3.65531
threshold=-0.0053850999999999994 -0.0042757299999999993 -0.049380389999999989 0.020603840000000002 -0.020467194999999997 -0.025126529999999998 -0.13464034999999999 -0.049087889999999995 0.034396295000000007 0.060672830000000004 -0.23380193499999999 0.052359715000000008 0.013677335000000001 0.087227100000000016 0.044047960000000004 -0.018246929999999998 -0.0091094949999999987 1.0000000180025095e-35 -0.050693314999999996 0.14668078000000004 -0.053089519999999994 0.037147325000000002 0.14922210500000002 0.69025740000000013
decision_type=2 2 2 2 2 2 2 2 2 2 2 2 2 2 2 2 2 2 2 2 2 2 2 2
left_child=3 12 8 -1 20 -5 19 17 -3 13 -6 -9 16 14 23 -12 -2 -8 -19 -7 21 -4 -11 -10
right_child=1 2 4 5 10 6 7 11 9 22 15 -13 -14 -15 -16 -17 -18 18 -20 -21 -22 -23 -24 -25
leaf_value=-0.0022292983463326858 0.00018858971480416141 -0.001212364323662805 0.0060591934104769068 -0.0016622482716063158 -0.0027174517985542198 -0.0031179427177526818 0.002156623519014808 -4.0152513449196196e-05 0.0046034197034616024 0.01112481045856839 0.0073833837498612888 0.0040397592032017536 0.00095492354067983369 -0.00066032508908691874 -4.4692842452498629e-05 0.0041885644618574695 -0.0019019261652130162 0.0029991117167956615 0.010268958730776382 0.00011448092652308611 -0.00059395176679742396 -0.0048431767010291629 -0.001741936937084093 -0.0031209072482933902
leaf_count=11274 4189 3204 520 6296 231 1201 1022 3455 1848 320 1793 1078 4688 2626 1454 3041 6226 448 474 5021 1591 121 68 167
internal_value=0 0.0162914 0.0385208 -0.0172699 0.073915 -0.00105719 0.0149011 0.0390035 0.0118592 0.0297036 0.100091 0.018602 -0.00870649 0.0203017 0.045667 0.107471 -0.0212221 0.0865757 0.134731 -0.0101891 0.0145141 0.0800236 0.177396 0.0792648
internal_count=62356 32087 16984 30269 7297 18995 12699 6477 9687 6483 5065 4533 15103 6095 3469 4834 10415 1944 922 6222 2232 641 388 2015
shrinkage=0.05


Tree=37
num_leaves=25
num_cat=0
split_feature=21 33 98 18 82 81 74 64 40 55 16 13 98 57 74 82 86 16 82 55 10 16 64 50
split_gain=15.9198 22.1035 17.5562 14.5286 10.667 7.75769 10.5419 9.40219 7.56165 6.57443 5.56507 5.49315 5.21662 5.11304 5.02555 4.12856 5.96222 4.08766 3.93567 4.98531 3.9146 6.04985 4.50184 3.91385
threshold=0.0042128600000000014 -0.013719454999999998 -0.0050226349999999984 -0.030435689999999998 -0.0020962349999999997 0.00076370500000000005 0.080281175000000024 -0.035347784999999993 -0.10421679499999999 -0.036892659999999994 0.036848335000000003 -0.0047564499999999997 0.0085588000000000018 0.044764025000000006 0.056368775000000003 0.016857340000000002 -0.029417089999999996 -0.029026279999999998 0.028147095000000004 0.41383594000000007 -0.034072939999999989 -0.012716954999999997 -0.021040559999999996 -0.0098375399999999971
decision_type=2 2 2 2 2 2 2 2 2 2 2 2 2 2 2 2 2 2 2 2 2 2 2 2
left_child=2 12 5 14 9 -1 7 -7 -6 13 23 -11 20 -5 18 -9 -17 -18 -3 -20 -2 -22 -23 -10
right_child=1 3 -4 4 8 6 -8 15 10 11 -12 -13 -14 -15 -16 16 17 -19 19 -21 21 22 -24 -25
leaf_value=-0.00071122515964126679 -0.0022506854565758749 0.00041362224160473594 -0.0025533787101336375 0.0076108787380695367 -0.0017680285544833885 0.0051593378205639917 -0.0031461371483973602 -0.00091927521383830296 0.0021078497862871254 0.0043508447457954813 0.0092555561967586231 -0.0011191898894516133 -0.001949264063101542 0.0016502277056406817 -0.0011846909893029783 -0.00044696554557968019 0.0023544022172454888 0.0073947816480943399 0.0040321485896757606 -0.0012891352727865688 -0.00034083518748694573 0.0077480932267595228 0.0017463230488321991 0.006334607417292722
leaf_count=14739 1404 3937 9608 684 326 1691 1212 1996 833 609 1041 1863 5242 759 2590 1568 1621 535 2084 558 4152 412 1293 1599
internal_value=0 0.0169246 -0.0150848 0.0405263 0.0725085 -0.000286317 0.0235377 0.0376776 0.110258 0.0358773 0.123927 0.00456807 -0.0149451 0.089513 0.0136192 0.0183111 0.0379799 0.0721029 0.0283085 0.0581655 0.00241041 0.0137786 0.0639321 0.0977375
internal_count=62356 29386 32970 16883 7714 23362 8623 7411 3799 3915 3473 2472 12503 1443 9169 5720 3724 2156 6579 2642 7261 5857 1705 2432
shrinkage=0.05


Tree=38
num_leaves=25
num_cat=0
split_feature=84 16 64 1 33 97 44 98 98 81 16 16 84 21 72 39 33 84 63 82 81 21 75 33
split_gain=15.0448 26.8897 13.7286 12.3096 7.56016 7.23741 7.12622 8.78453 6.41224 5.82545 6.05535 5.53024 8.87592 5.2953 4.96981 4.9244 4.87754 6.55022 5.01356 4.84275 4.23482 4.2278 4.20614 4.08433
threshold=-0.0078390549999999993 -0.050940669999999993 -0.0021908649999999997 -0.13211006999999997 0.010014505000000002 -0.022567594999999996 -0.0098141249999999982 -0.045511099999999992 -0.070311234999999986 0.30295875500000008 0.013919805000000002 -0.26921802999999994 -0.13636396999999997 -0.066696539999999985 -0.34237348999999995 -0.038103454999999987 0.023243485000000005 0.064338350000000016 -0.0043869499999999997 0.014164830000000002 -0.0021952099999999995 -0.020111059999999997 -0.12910825999999997 -0.37124436999999993
decision_type=2 2 2 2 2 2 2 2 2 2 2 2 2 2 2 2 2 2 2 2 2 2 2 2
left_child=1 8 3 -3 19 13 -5 -8 11 10 -6 -1 14 -2 -13 -7 -15 18 -18 -4 -14 -10 -22 -21
right_child=5 2 4 6 9 15 7 -9 21 -11 -12 12 20 16 -16 -17 17 -19 -20 23 22 -23 -24 -25
leaf_value=-0.00054636214577970124 -0.0029081736751416449 -0.00054961692120980338 -0.002146780421423839 0.0072365904301900435 0.0017457536216481829 9.7249777208513696e-05 0.006607758695430602 0.0010982253261973417 -0.0026212212396916771 -0.0032038345646341415 0.00729480306462471 -0.0032117138093151602 -0.0017701977737494764 -0.00029825237074683394 0.0033548338357009509 -0.0021961307235751049 0.0027976648057226744 -0.0011014877001343849 0.0092739480265893164 -0.0039468239174765118 -0.0011067352273896563 -0.0004850031061979947 0.0038411665300145618 0.0020782848314998496
leaf_count=10189 1126 1166 2055 2272 1139 2949 1286 1654 3932 312 865 312 2438 3653 3768 11347 1088 768 412 329 825 5636 896 1939
internal_value=0 0.0112052 0.0487565 0.08189 0.0169257 -0.0215322 0.102669 0.0701636 -0.00625458 0.0630295 0.0828185 0.00465049 0.0239151 0.00469608 0.0570537 -0.034461 0.0166501 0.0530757 0.0915297 -0.00777397 -0.00859396 -0.0272578 0.0293856 0.0240854
internal_count=62356 41013 13017 6378 6639 21343 5212 2940 27996 2316 2004 18428 8239 7047 4080 14296 5921 2268 1500 4323 4159 9568 1721 2268
shrinkage=0.05


Tree=39
num_leaves=25
num_cat=0
split_feature=79 16 29 15 39 97 79 55 10 96 92 81 98 8 82 70 85 36 16 33 79 55 98 81
split_gain=14.7199 16.6129 19.4331 9.60667 9.40191 7.41354 7.15607 8.62014 6.95709 6.88797 6.4267 6.21013 5.20256 5.18209 5.42769 4.80249 4.34516 4.24252 4.021 3.87152 5.90394 5.54724 3.86452 5.6689
threshold=0.012254805000000002 -0.050940669999999993 -0.020467194999999997 -0.016197294999999997 -0.013153959999999998 -0.0046644049999999991 -0.061639544999999997 -0.030902219999999998 0.019700475000000002 -0.028542234999999996 0.029268625000000003 -0.20291265999999997 -0.058826779999999995 0.0051504350000000009 -0.018602549999999995 -0.078118829999999986 0.19635672500000004 0.024196130000000003 0.02203714 0.009260245000000002 -0.063819339999999988 -0.023680734999999998 -0.0010208099999999998 -0.022569629999999997
decision_type=2 2 2 2 2 2 2 2 2 2 2 2 2 2 2 2 2 2 2 2 2 2 2 2
left_child=4 8 9 -4 6 19 -1 -8 -2 15 13 -10 16 18 -15 -3 -13 -11 -5 -6 -21 -22 23 -9
right_child=1 2 3 10 5 -7 7 22 11 17 -12 12 -14 14 -16 -17 -18 -19 -20 20 21 -23 -24 -25
leaf_value=-0.00076486516816432588 -0.0026116118891916984 -0.0019948006096993927 0.0015931879830727244 -0.0011883641280281193 -0.0014796797224378201 -0.0026111497572944621 0.0058446584926701815 -0.0003355708263576469 -0.00080632963599580653 -0.0034295672449873383 0.0080008524253682278 0.0034972278067989544 -0.00035137925547912697 -0.0014361065896007583 0.0065663545731456151 0.003196806305333982 9.042421676785982e-05 0.00056297903845277939 0.0050906040453695635 -0.0015452200936011875 0.0058311942381031948 0.00061784803525459075 -0.0012530631391781653 0.0034897904919003204
leaf_count=8555 2547 602 2862 669 5224 8192 946 1944 7293 1677 1478 2861 2945 243 1655 1713 1391 1103 412 1907 726 1717 1764 1930
internal_value=0 0.0162403 0.0440639 0.0770751 -0.0145356 -0.0301394 0.0037759 0.0285589 -0.00403334 -0.00335686 0.106107 0.00443889 0.0252787 0.0793599 0.110836 0.0369353 0.0476545 -0.0369095 0.0240946 -0.0112436 0.0107934 0.0433425 0.0137373 0.031404
internal_count=62356 29451 12414 7319 32905 17766 15139 6584 17037 5095 4457 14490 7197 2979 1898 2315 4252 2780 1081 9574 4350 2443 5638 3874
shrinkage=0.05


Tree=40
num_leaves=25
num_cat=0
split_feature=33 74 55 82 50 55 82 16 86 14 90 65 84 16 33 84 10 84 75 55 36 16 95 44
split_gain=13.7363 18.3572 19.911 13.7607 11.5185 8.46238 8.21824 8.12117 7.83989 7.00683 6.26698 6.25034 5.52204 7.12724 5.36088 5.23951 5.20295 5.04176 5.0156 4.19485 4.04513 3.69904 3.59842 3.70165
threshold=-0.019575274999999996 0.096666500000000016 -0.027611474999999996 0.020603840000000002 -0.023687334999999997 0.086822120000000017 0.049507420000000003 -0.0065306199999999991 0.0071686250000000014 -0.025583599999999995 -0.043168114999999993 0.015966740000000004 -0.17111832499999999 -0.31296412999999995 -0.084982434999999981 0.00087587000000000006 0.0021596700000000003 -0.054243184999999992 -0.023058164999999995 0.18737090500000003 -0.10072402999999998 -0.073448674999999977 -0.017015604999999996 -0.04416446999999999
decision_type=2 2 2 2 2 2 2 2 2 2 2 2 2 2 2 2 2 2 2 2 2 2 2 2
left_child=6 2 4 9 -2 8 11 -6 -5 22 -9 17 13 -7 -8 -12 -11 18 -1 -15 -13 -16 -4 -24
right_child=1 -3 3 5 7 12 14 10 -10 16 15 20 -14 19 21 -17 -18 -19 -20 -21 -22 -23 23 -25
leaf_value=-0.0015476253483065841 -4.1213820645808998e-05 -0.0020103699876493496 -0.00089207317527144965 0.0017958551613807526 0.0023045521906006642 4.9439339783502846e-05 -0.00069580370574022228 0.0011315020864283798 0.0062997938867556755 -0.0031408257398376619 0.0088952084087693794 -0.0034575516053378811 -0.0014359845245692534 0.0080819371987728445 0.00056798708224686898 0.0041400430122843597 -0.00055507849645470631 -0.0030889408484205041 0.0034544687432697669 0.0026027936976134951 0.0010180216432480382 0.0037352635134619422 0.0054863943547298873 0.0010429139987948553
leaf_count=4561 1766 5524 1694 2520 2199 2719 7047 495 1567 3211 1699 612 2174 489 3009 879 4936 6592 563 1223 2884 1329 607 2057
internal_value=0 0.0128003 0.0224849 0.00834978 0.0690738 0.0346899 -0.0172097 0.0924881 0.0704543 -0.0141715 0.125689 -0.0324168 0.0125598 0.032813 0.0031092 0.145478 -0.0314841 -0.0434895 -0.0199604 0.0833561 0.00469081 0.0307664 0.0181934 0.0411075
internal_count=62356 35759 30235 23197 7038 10692 26597 5272 4087 12505 3073 15212 6605 4431 11385 2578 8147 11716 5124 1712 3496 4338 4358 2664
shrinkage=0.05


Tree=41
num_leaves=25
num_cat=0
split_feature=21 33 34 79 82 21 91 34 84 48 26 20 84 79 20 34 20 84 84 10 77 44 31 33
split_gain=12.9376 17.3181 15.4946 12.5885 11.9062 8.33375 7.34336 6.63832 5.57628 5.12644 4.95116 5.54326 4.43917 5.66783 4.4804 4.25019 4.67725 4.06748 4.06513 4.02702 4.01784 3.78013 5.09528 4.00698
